	pc1	pc2	pc3	pc4	pc5
0	0.04239126536715168	0.014343507377601818	-0.01907908943051517	0.010097748769105627	-0.009548815180267255
1	0.024943524107083385	0.007765170893512905	0.05380984814066473	0.03305178001310107	0.00821675724236927
2	0.04273840996133594	0.019229624921507708	-0.0038144257215300885	0.026092258616571017	0.0007483595917719105
3	-0.004020319108950947	-0.009394093726884309	-0.04251527820058085	-0.07654585803441348	0.007106237738254866
4	0.0456107360500663	-0.021292330150343212	0.012231008214396991	0.005991057793622202	-0.005459469582392953
5	-0.0025895602269492357	-0.005214931373961018	-0.04520785678720406	-0.07522620879047996	0.022825551519846984
6	-0.02472393485350561	0.03636785223185844	0.03134747541021672	0.04498278148331602	-0.010109707852717769
7	0.04556548740505232	-0.02137191653299533	0.00678328455159928	-0.000737045458335879	-0.007915616808370158
8	0.044784426601520294	-0.026080370176789415	-0.00018531319974280337	-0.002362522549073039	-0.0014465662199465716
9	-0.003547365078182726	-0.0030529705364712033	-0.04431826752836432	-0.07561060755196386	0.021431038219132663
10	0.04362540573671498	-0.028593310003547055	0.006230918996791292	0.0021926264570391847	-0.0036950484546683505
11	0.042066381664461305	-0.011824661240379543	-0.033939731916768794	-0.011440326758177629	-0.015459675329298653
12	0.04330877614397578	-0.024503208922228514	-0.004749946771897198	-0.011847979211581754	0.011879846369455995
13	0.039702971165773586	-0.017082891861071616	-0.016052690021375552	-0.0015719027515544014	0.020708060975845363
14	-0.028711306848266005	0.04864583202514881	-0.005432976275022216	0.013834183611125109	0.015685289449340886
15	-0.028918706690016956	0.04873137587598019	-0.005964280128421031	0.012625082171156928	0.014004428100920396
16	0.0440657801358124	-0.027645139951710782	-0.007294965486245895	0.004205280253909972	-0.006880658881427621
17	0.04237601298636315	-0.01811761885873917	-0.02497372091612147	-0.01386975609056235	-0.010956431146729007
18	0.02770878045560121	0.017589065658931757	-0.005410063559879312	-0.019501333722876376	-0.053227764444551164
19	0.04518258418605023	-0.02154048527197846	-0.0041874963572956754	-0.008630219347399853	-0.014799428396802554
20	0.044783494873064426	-0.025256067894524125	0.004780121951650536	-0.005188416493401887	-0.002008537233215167
21	0.0449917376940853	-0.02343782530892421	-0.0033325183796643495	-0.010456391800130482	0.0009402557365911919
22	-0.009576838666656672	0.046254498056306735	-0.025737089955120987	0.005771646974694731	-0.04946087696673342
23	-0.028607222779225998	0.04753291858297086	-0.00772828486055052	0.015787452707128932	0.020396290777038716
24	0.02903584782302638	0.0133812737620411	-0.0031994307741796016	-0.01629580337469513	-0.06029592392556176
25	0.04567034291832723	-0.01991555187132449	0.005449086371517232	0.016396493180642853	-0.009470151656585445
26	0.044224299004049304	-0.025374962155966185	-0.014032328794559049	-0.007847554198895568	-0.004406534992848985
27	0.034041795116209354	0.015540165081866708	0.02464578469015128	0.0019505722818362282	-0.002584358332143214
28	-0.03447463689965915	0.03723111752677732	0.02010899039381525	0.029328516194239904	0.00016867103743211918
29	0.045909553359471666	-0.02091305961545471	0.011429201153119435	0.004099012302535108	-0.005015103326205691
30	0.03958848317141358	-0.012462195895859368	0.015202072002991665	0.045234129690066835	-0.026746548622403492
31	0.04386887474096448	-0.027797662489626847	-0.002721411547630458	-0.004603459832574814	-0.009170162260378712
32	-0.006958616948683062	0.047593311338451474	-0.034396949294498796	0.010450470926171318	-0.04213193570434604
33	0.0443228575713504	-0.027335031488341075	-0.0035118567424151006	-0.007783105595984265	-0.0007032870882476655
34	0.04523747983190218	-0.012206097151048513	0.008388211052322203	0.013885872947785736	0.006698289424591583
35	0.04515285851630569	-0.011932249119319926	0.007355763669643802	0.013019598775086367	0.005246698990230376
36	0.02826722774751216	0.01766818601889252	-0.02002522058408238	0.01188553584184952	-0.0728929650300337
37	0.04352908473492203	-0.025746817479388683	0.01178080973017914	0.016233565567222025	-0.005467665515470262
38	0.04261162979901288	-0.030199472234313407	-0.009474076889055428	-0.0082363501780938	-0.006187780426461358
39	0.0400258867092622	-0.014095374076649405	0.023617332716113944	0.043657125112986556	-0.0030598457485427706
40	0.037769528912916336	-0.007037894560333283	0.024169712418180223	0.01851463039242419	0.01966744033906909
41	0.036020975645884176	0.018364872877920577	-0.02874986564967367	0.00415194104692141	-0.014181573046507847
42	0.044462441373733244	0.001234019173121519	-0.018193741204802737	-0.012381420158492747	0.016025290235065465
43	0.04216801048936508	0.01549052042453992	-0.0247588403544306	0.0037050321738583566	-0.02546502693829368
44	0.045799523470909716	0.003109245797972978	0.02212317027317818	-0.01745717959727323	-0.006948350114970852
45	0.03545200539262659	-0.000489725686331254	-0.048260761488088964	0.02642194431821751	-0.004919784672532525
46	-0.013731856995126163	0.046528074120765026	-0.02114349610499288	-0.003874719328959379	-0.02945322295507894
47	0.043525139310827896	-0.02591638893740802	-0.007793974308588687	-0.013923423488080601	-0.005455959731637932
48	0.04658297993446411	-0.016497993767333647	-0.01157077373151783	-0.011873212496454157	0.0018109065001816417
49	-0.032170698067309496	0.044986568052825936	0.01589844613498047	0.0033885777726355543	-0.004120307004209304
50	0.037302329408081876	0.019226026321155033	-0.025826154743925137	0.005781204652037984	-0.020395000268526777
51	0.04750641636447438	-0.015297581927986552	-0.004327643337848303	-0.00501521856539543	0.0005250897130953069
52	0.015795252934119042	-0.016692873200452294	-0.029680999025157487	-0.07079052499908378	0.021423305311735773
53	0.04691298074373562	-0.01297197116922832	0.006862243162159776	0.0047174592948281266	-0.014409247879267237
54	0.04447909718922548	-0.027504530592601502	0.001714215495444568	-0.0018595318770777255	0.001228204110917126
55	0.0004270219826602653	0.04471496570997026	-0.0376642422256444	0.015725172759644218	-0.05014707437274001
56	0.04702062082589568	-0.008440517816815688	-0.009615235035455166	0.021126561398520916	-0.0012207902679268591
57	0.04432353468881685	-0.027611557228359784	-0.0012214322337933338	-0.003161757194455173	-0.01107639980450525
58	-0.016574772675628	0.024095089885333848	-0.035508172365417826	-0.06237032206600615	0.03145458226305
59	0.027228202849857053	0.01676459854762271	-0.013850324235955763	0.03440526652382834	0.014382179098273669
60	0.013289773157603633	0.040627894737855705	0.039401437488620634	0.00832740265253166	-0.0015981329267010678
61	-0.0008927614395934129	-0.02265481232064478	0.02220937229148087	0.02034763565567473	0.049568054389676916
62	0.04268326935043144	-0.018535821686823134	-0.027194461077076543	-0.02390667970684601	0.0008213291717061048
63	0.013270910133403136	-0.0020960730325625845	-0.0017990221656170066	-0.06666935767673202	0.03819293612751795
64	0.006058670117067316	0.044286747802158924	-0.014037098693659402	0.04155679860726633	-0.04666873549416305
65	0.02965979744672431	0.014000654046305842	-0.05511709668094037	0.014241125618337245	-0.005955480826866743
66	-0.008198497433673345	0.04576711355135636	-0.031484848806877186	0.013362968701051274	-0.02648232364956482
67	0.03552431682201425	-0.010816391972096951	0.02726432214582219	0.04776712859710247	-0.019623198403112403
68	0.037190483517822025	-0.0012347775264089642	0.007992994008662697	0.014170405122385581	0.03002486631005257
69	0.046228142035168944	-0.013405755102657839	0.016011943502378865	-0.01610202719695088	-0.009585489525767842
70	-0.008167120249657413	0.047940941386513426	-0.03188908710464472	0.012575616095336419	-0.04381218332220531
71	0.044105311604554616	-0.02671250135435685	-0.007632351653108405	-0.008574248599725321	-0.0012125714841707178
72	0.029153011700208557	0.01391742106032955	-0.053300305614426245	0.015524766397670127	0.015162576148806003
73	0.016226032009225975	0.022089255006754457	-0.02320000094255552	-0.004370142791432027	-0.019795574062800463
74	0.01378803417093573	0.04065875047114181	0.035639594714563544	0.01349467121466447	0.00989961369682145
75	0.02283030655330191	-0.008558711399373427	0.015117206511556095	-0.015369330737955588	0.03201651707296482
76	0.04325747275823826	-0.022187925086204614	0.004378603601028155	-0.00308213777397001	0.005225113138461869
77	-0.0015701582496839752	0.004726520145025494	-0.04077298652694147	-0.07894293952926285	0.023645132475390816
78	0.03548663633486105	0.010126356307056772	-0.004925628390159302	0.06013293108239354	0.00041731097436917497
79	0.029816745719732255	0.006799115319201881	-0.054270548826918764	0.017229766136937087	-0.029728858606292794
80	0.044981781686087345	-0.024304426234488172	-0.0007694452824836994	-0.00516321810698665	0.006027849010924946
81	0.01505499916695175	-0.011047986289707264	-0.03316732158245005	0.016268507015926373	0.01950317999963332
82	0.046391011733999364	-0.02217278166474323	-0.005317457399232393	-0.006761116359057501	-0.0014433894224023796
83	-0.004815448848504813	-0.0056165887822358825	-0.033107165381842316	-0.08404405014811649	0.018931234451620826
84	-0.027526965671034433	0.045036149213147914	0.02652089210257839	0.006580323757483195	0.011351676450745127
85	0.045218750744391245	-0.02049651237431981	-0.013596023787937277	-0.005182914453555304	-0.02117772080761436
86	0.04218130319459364	-0.026780993682909746	-0.0037007697335083283	-0.01323739719306937	-0.016708640905754794
87	0.016502325677354015	0.012701286331240569	-0.016162204812897634	-0.00985442541221505	0.004457329302987114
88	0.03299963229778609	0.0161405478785241	-0.019608126564755232	0.007833480768914172	-0.06743437611047215
89	0.02497886062908457	0.006464083572562753	0.04706436250543628	0.05519570661067968	-0.02144608931809119
90	0.006197210458203719	0.056123267682134985	0.00983824258915622	-0.021408620149627935	-0.011119446868681599
91	0.04152946523712399	-0.0311833817858623	-0.009820125479390386	-0.0067924305692850595	-0.0038020530219269903
92	0.04385318804968801	-0.021807348710884994	-0.004591662581954387	-0.017536660688017475	-0.010186420490187505
93	0.025959598618041754	0.00654572196976113	0.011127922161640156	-0.023251494219346556	-0.06873738437043353
94	0.006121774828290568	-0.014322147595980345	-0.056844467581741075	-0.04871675584430129	-0.004827989973790349
95	-0.0004509726003010296	0.041185442072035686	0.027894302869982672	0.015093098413117739	-0.003017599072270387
96	0.04039533599321509	-0.02236027212913167	-0.024712348147652614	-0.03237779283670783	0.008342788610250512
97	-0.03355463835137555	0.04368439124208904	-0.007304877950973587	0.008039086043962546	0.014729921453693394
98	0.04413124685732904	-0.020527428755543753	-0.0035341403190309326	-0.018341097153117426	-0.014891382101020723
99	-0.022637306431788125	0.05323824273594655	0.0023477410653861552	0.012433664988223191	0.009831534697945087
100	0.018839799628394265	0.047500475498072396	0.008000581916844572	-0.040102814684457276	-0.007322320238272466
101	0.04193313659898021	-0.028756689084450237	0.010117661829399306	0.013350079764864426	-0.011457257041469677
102	0.02482019231598349	0.038702371105257975	-0.0275064075681885	0.023051554453457357	-0.031894901189583005
103	0.014469225868927897	0.031864533859185876	0.031993044785697776	0.0577703994897716	-0.030540700068848934
104	-0.027480147380850677	0.04062820487534236	0.022804930170747188	0.035564871048064564	0.02410037191856112
105	0.013992599740133288	0.012925751911534692	-0.04517327533959346	-0.06047648610089889	-0.03186376173835745
106	-0.005787511717652996	0.03505031697607299	-0.008039796596403678	-0.003798543434869475	0.0026698496378204707
107	0.026146039298825755	0.039837581723738504	0.01355190948466432	-0.005856264073362416	0.02725584354632162
108	0.03295757387320494	0.027917008663706104	0.02273489771576477	0.010303093850522917	-0.018928966863458865
109	0.043792283323942215	-0.020368550661543708	-0.022662148430880408	-0.010223819769817058	-0.013510252258198635
110	0.0447191734457209	-0.022693546002018915	-0.015175303858862685	-0.003914902586063533	-0.016084665161243305
111	0.002647125664101078	0.05644352515995872	0.00825290894075784	-0.021156956454497833	-0.00966385966112502
112	0.04157241075155757	-0.02990389483292935	-0.000903589251153833	-0.01530847292256112	-0.0006044818229992788
113	-0.019914245856382615	0.04792493899677732	0.016066648786137002	0.03317380301062107	-0.01629032642951255
114	-0.02884399830761056	0.04607919192569272	-0.02078771774317703	0.014377077407017628	-0.0031929450100899046
115	0.010794079131563198	0.025055461303435066	0.0030547670422269033	0.016392385212897435	-0.06751351550621283
116	-0.03322033378575217	0.039826164826623066	0.02571930296540676	0.005020509721765583	0.01926516124968828
117	0.021317087737960486	0.02171166214780017	0.030773228986945594	0.04384937516452149	-0.03211807298575308
118	0.03210835218652761	0.005319865094366349	-0.043396698951125884	0.026425845434945174	-0.010969667377371933
119	0.03934036987228821	0.007302507431962837	-0.010397458665136165	0.021672636446009728	0.017125862282971038
120	0.00048175530494456303	0.03543188040960295	0.05094810961431467	0.04222063448621869	-0.0008858417315288506
121	-0.019909234544859215	0.0514428954053842	-0.010467140265341329	0.0037049113995919676	0.01317435221468906
122	0.017870849139267463	0.015554892334168761	0.03748759996633225	0.017511117420842173	0.010798700049387282
123	-0.012946273745887788	0.028438521477524188	-0.020238593471251683	0.023618115339115956	0.03444898499175987
124	0.024722344597876787	-0.018101606077773426	-0.02614004916439713	-0.0686157094734843	0.010866046025575879
125	-0.008966202620725443	0.018709268589309675	0.012930998129840027	-0.028662703965109834	-0.016096113695217733
126	0.03224021686596832	-0.006178707761799745	-0.0347321125661965	0.0469660599033698	-0.0035006533817473285
127	0.006363954824463313	0.010128503313764099	-0.0420148440637465	-0.07387261524920255	0.018311802643338284
128	0.03696944893055712	0.008772708993743222	-0.008084216250664859	0.03716163683908717	0.012757866511793645
129	-0.015464036575035483	0.044520597941559145	-0.012680025590588498	0.0018425541994259319	0.00828943140666239
130	0.04214698805238431	-0.0027773864784399636	-0.03040980965351374	-0.012587910704082777	-0.02486946372249073
131	0.025188760251938617	0.03614232425677668	0.023760680912451655	-0.042505602908017005	-0.02915987415694181
132	0.04227487738750082	-0.01848188092948079	-0.024389281454233837	-0.014820586540001698	-0.010800434283141818
133	-0.009749596929515252	0.011654575101704463	-0.04033114645048496	-0.07088904622730732	0.015642171162744484
134	0.04449339513798695	-0.0266253199933774	-0.0004802413502831943	0.00625948094459256	-0.004434960408435205
135	0.04315943658534025	-0.021869969705433697	-0.019739839162209886	-0.009109224354700447	-0.013979614523193195
136	-0.007120413684650234	0.008477073527639968	-0.040012223398274455	-0.07634334635834372	0.018776047378842697
137	0.039980338175986764	-0.013276454056071689	0.02335042208035925	0.03702615784966569	-0.013143412939982354
138	0.01362727733169766	0.028352371592798152	0.02359148060588932	0.07068806430873206	-0.013504802040864038
139	0.04214072086408015	-0.018270501207588337	-0.026113247390500503	-0.01536914111879366	-0.009898179889298279
140	0.03886373354953801	-0.017869574130068573	0.00933160644928595	0.04080953199888106	0.013168312856907007
141	0.03845058856329984	-0.002416446299262471	-0.042433676453298555	0.026045468313125927	-0.012973104794747718
142	0.021184058292196023	0.04298273963032116	-0.0025423776968306923	-0.04472725051145957	-0.0027136253587772743
143	0.036127466895238665	0.024995823566417788	-0.021039617454553624	-0.024427400164668944	-0.004271591100329833
144	-0.006900813328641659	0.045897124623816704	0.02866200352160727	0.04500232448988435	0.000866764389397456
145	0.03092394935130106	-5.456772482219069e-05	-0.03247402598848841	-0.05306682821504627	-0.027827302928686334
146	0.027328116479908935	-0.0007810217367444783	-0.06224524913623198	0.01684569764351664	-0.007062350652183495
147	0.04287552501173459	-0.01738272738440015	0.019849544555858366	-0.01735910899556294	-0.017490543401517403
148	0.04650181481543842	-0.01881622610503599	0.006689655378794138	0.011192970801211963	-0.008008189880102155
149	-0.019487032984080502	0.03334427240307083	-0.03570380614678597	0.005535239171476084	0.02479414569338379
150	0.03615632467069202	0.014151824056670606	0.0012875390655608015	0.051131372478821456	-0.015209725302150957
151	0.04677631150670293	-0.014077988878931462	0.009681143721684068	0.017016761799143593	-0.007899615097571427
152	0.01310112123369085	0.05227279143185631	-0.021914847781869865	0.009230917094156658	0.011963131482904635
153	0.018939498231480154	0.04253244827626587	-0.04030399888228306	-0.006295650208039609	-0.011623221707668467
154	0.011905605344396563	0.04083776448475161	0.021343247157336685	0.056843934072587324	-0.004723764170065438
155	0.002502329236835573	0.009955098512767336	-0.0033947084821184447	-0.0048031085009619685	-0.009646016750886038
156	-0.008163539083713527	0.04243524778050679	-0.022701518426686725	-0.0046268496922220485	-0.039805324461138644
157	0.04215059740230859	-0.01781259762222064	-0.02605135542692182	-0.01230962675978936	-0.010795374714324246
158	0.03497308039691422	0.017469106317306957	-0.013603804441371006	0.004319856750842334	-0.0678127056439202
159	0.015861384789967493	0.036371634264943824	-0.02718787105404711	0.017736707033745407	-0.03421538979728425
160	0.042985155754965546	0.007129568097593384	0.004714282371883208	-0.014219378315860082	-0.03305097727588055
161	-0.003065429696245703	0.005628203573105963	-0.03763066823806523	-0.0786136797730672	0.024625103963174747
162	0.04216153501038385	-0.01864743475675606	-0.02518531250355365	-0.015131262884623591	-0.012205127949517423
163	0.04695867546583277	-0.01979092760071186	-0.00015148346827702428	-0.0004704462192131401	-0.010200637168853858
164	-0.03451964818117462	0.04265971900439629	0.011980531421725213	0.0038967574485618134	0.014308657044655405
165	0.033904604206336016	0.021169785926297955	0.006183148337063887	0.022365562284146562	0.018089560513077366
166	0.015232203050640592	0.0033118006722127106	-0.04138209314918068	-0.07706686179808987	-0.005961205829137806
167	0.024605843136906193	-0.02092100807960972	-0.014436738958624105	-0.06819819156889227	-0.0034837824317050727
168	0.0006142970681137923	-0.01871762175000786	-0.022277537005972754	-0.061801560308440924	0.041360117758078366
169	-0.009278696221857327	0.03207354956061866	0.009692456042724819	-0.034245748321739405	0.01660485267195161
170	0.0011272698765658607	0.056900191679346235	0.011751502891713079	-0.017855785910005632	-0.012166987467768642
171	0.036124566488380846	-0.03076649392582189	0.009828474761633583	-0.01505739865239325	-0.029334074447422417
172	0.004240752250647662	0.031997040554668	0.04337604384055197	0.05256616369824345	-0.024583552112690536
173	-0.0006560274499708518	0.0005340695313899651	-0.03486390418166933	-0.06650571235345375	0.025092441024594833
174	0.017415342651677296	0.043556365412951964	-0.010412922186907626	-0.05218723083928275	0.001604786550579618
175	0.02539906552535087	0.04545173402151828	0.011336751673280632	-0.0050572767971855115	-0.010632716551624552
176	0.04381075282441517	-0.012294318279504854	0.029905661808857485	0.004579442738921048	0.006877319962769895
177	0.0440230776160219	-0.02517188667065195	0.007792083307826331	-0.014998179665493477	-0.008340960980545459
178	0.025247649443959463	0.013986107663113841	-0.0648904944893909	0.005510756963333116	-0.003683646469635981
179	0.02466118171187561	-0.023817266431397956	-0.03273855738619611	-0.05989873518470377	0.009163035150651264
180	-0.03741851983239493	0.035549040627043386	0.0037172844222584877	0.0007760990764723807	0.008369007936800756
181	0.013909786262852622	0.023222182443994325	0.015385276287320296	-0.011702351502974585	0.06209884603303808
182	0.03720351519642922	-0.010932943137259232	-0.04676181663467677	-0.0024153352198075452	-0.013588968616922315
183	0.006974414308811659	-0.003221876840880029	-0.009557954980449423	0.003942903553435082	-0.01724498868643876
184	0.0475745567569719	-0.0022532428822947016	-0.019243763345169886	-0.01233319202824307	9.51713886642838e-05
185	0.04069728431704104	-0.008391984130844481	0.031313791442614765	0.03671056631856285	-0.004035814120356471
186	0.043479931947899265	-0.010992981580896078	0.0002653599541831808	0.005741084251381321	-0.019966517912968596
187	-0.013573180330900048	0.032780127752093574	0.043907075906815245	0.02918449376539108	0.008008946325209067
188	0.03605187218965975	0.004876722902360547	-0.03881913087523924	0.0002849819415974431	-0.02301665710161664
189	-0.028194268898799866	0.04811125320162995	-0.007656185934574848	0.015642316166672915	0.01894962587799247
190	0.006620669218554067	0.04760075460282932	0.010439454628056542	0.00939894890407109	0.025287106477902402
191	0.044448370587188084	-0.014285925660087637	0.02434557977814884	0.0007328691959368623	0.003423791808395948
192	0.04149127199179238	-0.01772599441702635	0.02412977147989677	0.013657706046275067	0.004451748047885659
193	0.0238050535508651	0.04054521625491378	0.0005502546595153077	-0.0386724035901109	0.0006522757985938363
194	0.045489603725979724	-0.023636559155748506	-0.006242498321978332	-0.01091006548595559	-0.00571556036084402
195	0.034415604362815926	0.0031652203440560326	-0.03983489331744501	0.012164777744708559	-0.02869504305651965
196	-0.03757436329338442	0.03547297187589615	0.0031175500542549714	0.001392259031812626	0.008466293648160428
197	-0.028631158317327172	0.04759526009105891	-0.00750617660259797	0.016404450711577277	0.02029946588479046
198	0.007656847079101728	0.05172440470316463	-0.0032974298255831988	-0.017349072677109733	-0.01807510657036774
199	-0.02907963815845235	0.04672748794841311	-0.004610279659272122	0.01720459435945757	0.02282966214878218
200	0.01918668927562303	0.023772610267635972	-0.018036009368097294	0.003761711206791238	-0.052192798626129334
201	0.04521185708161056	-0.016098879762601846	0.014168116345261801	-0.010715969731124767	-0.00874398309516915
202	-0.0006228671666508772	0.03873835654708959	-0.042709781254003036	-0.01878028960961624	0.017953208018130166
203	0.04252635088144655	-0.003592864670293592	-0.03431882848027064	0.024603658335473132	0.0023045785348136134
204	0.04701875623958716	-0.016245422332588577	0.0040174040874282595	-0.01327580422365616	-0.0019642752007074486
205	-0.026389219518483414	0.04762385858118663	-0.005254185436455133	0.010006525941007132	0.00888282729626215
206	0.016796966027704884	0.020674870973520967	0.025916707742793827	0.01408262170561445	0.0382221797476434
207	0.042427282399356545	-0.013545391930236156	-0.0016882789109371613	-0.0012981042480681353	-0.02020451917882883
208	-0.0186975408609199	0.03454114631193215	0.0208567328766771	0.009674188678276676	-0.02051819649921335
209	-0.004052650816991936	0.0477824241825352	-0.025636292813253678	-0.0010358610377720961	0.009233108982150276
210	0.03447962176321165	0.02341823268321093	-0.021667986254005688	-0.009060644637998508	-0.03264826805706686
211	0.030437834577157714	-0.0016000473396028485	-0.030529344484323727	0.014217396039916232	-0.05277214625334448
212	0.016943657083816382	0.034819852360113354	0.002996317383937852	-0.05699110037611848	-0.01684901616057961
213	-0.02891491392680455	0.03760560233623566	0.006563865211981262	0.0445419339692398	-0.013562456130462777
214	-0.028697869103806818	0.04753682087794669	-0.007870384360632629	0.014720539426871276	0.019101958121284242
215	0.023613073610842215	0.0015547309336186896	-0.024664006160503762	0.03428742627902928	-0.05552080584030645
216	0.04585210401623063	-0.023088263450195632	0.007839982782003808	-0.0021480824426725878	-0.0021493888107578067
217	0.042089475608603155	0.016362851605310046	0.016088754324199935	0.027903700671181884	0.005328289508150618
218	0.009434167466396914	0.05583560582662282	0.02001406214399239	0.003366894234731003	-0.011260140552470797
219	0.04458846836203736	0.011850406646441039	0.010298778643071674	-0.011645238050597468	-0.019533058049723374
220	-0.02849455085535193	0.04501019795673969	-0.010403793056180683	0.008915373175828724	0.021252452769898973
221	0.002646790934250088	0.030310722920835233	0.036177971639993936	0.06388305318317845	-0.03512656999365023
222	-0.003266473220795239	0.04098259509283418	-0.027404322503958002	-0.00886720981456658	-0.019896615729807644
223	0.026449723601132246	0.025334847441935586	0.03953120722801183	0.028734408959536797	-0.019288112984649334
224	-0.028425268294904004	0.04756172380707586	-0.007864461034592492	0.015976728327302354	0.021455051811376538
225	0.04513671213119636	-0.01604251015485451	-0.0028894497131808933	0.0041142841547681065	0.006304863354632377
226	0.02267404831487721	0.03463226350691074	0.019235000604976786	-0.00396077457183138	0.016385261746156992
227	0.03896934860135247	-0.022522269224433285	0.006616108862024598	-0.006834599214546253	0.014820891207415863
228	0.046365241767119196	-0.018725103385041162	0.007099584238031399	0.013512822800582415	-0.005484906474806474
229	0.03185071742207929	-0.024443264214523294	-0.007473613724016572	-0.005610696087584441	-0.02229494299859432
230	0.007665502525049153	-0.0008042305327437845	-0.00994476759603897	0.02029965852180253	-0.006827292074656217
231	-0.0015757386251930895	0.055650713586109395	0.022976468720225306	-0.01819868452223428	-0.009062409161318832
232	-0.02738630430441531	0.04862957284819154	-0.0072594517243191915	0.01736546399514936	0.019333534467755792
233	-0.02715468374690538	0.047239964056431924	-0.0053893858427726355	0.00899037861257016	0.008819688057797476
234	0.02542528584962225	0.029123900515971236	-0.015285355892428954	0.01873396769453239	-0.010277663611734838
235	0.01744705766326856	0.0148813664919968	0.03936046416226775	0.007986749694022067	0.00833488949176152
236	0.018434967237818043	0.03106899732120674	0.013316669996959627	0.06514743700967686	-0.007322994616446255
237	0.04736175462285206	-0.010857941693998075	-0.008766087111014655	0.001918899840586861	-0.0006934116289476856
238	-0.0013696401273162369	0.043051560694868984	-0.01732805797681246	-0.06039194800839657	-0.003143021022015999
239	-0.008449039562056948	0.049450140969719086	0.02499862935362929	-0.03068820628426991	-0.0025387227673721964
240	0.026090710579897276	0.024037989642594043	-0.04957863919647241	-0.0022984333074539437	-0.0392338732251465
241	0.016755003168190855	0.03897271289461877	0.017095843874547396	-0.04994216922290605	-0.024993007671192082
242	0.03158948500626415	0.03174705781146018	0.019304813635303786	-0.04039310613267073	-0.020597631898249487
243	-0.0026794338314411023	0.003412720425612422	-0.024918960803416552	-0.06734954411652687	0.025164754667321477
244	-0.028570752175257827	0.040043042054798715	-0.011822695790302502	0.012307517388951614	0.01602417277115793
245	-0.02699399059564655	0.047317717066305005	-0.005150284505273686	0.007280363499705116	0.009637993358312343
246	0.011119722868731951	0.014061873446939254	0.022152924669472406	-0.03498611589251609	-0.06891801080556045
247	-0.03781544881215093	0.034957594761809214	0.004291524712121392	0.0006426915615471185	0.0075229088513377755
248	0.02507216326115861	0.01814965521107151	0.008594205522232347	0.055364736272774655	-0.04537126143083238
249	-0.026087736127913343	0.03573759008310828	-0.008996687576646503	0.04094396133431219	-0.013691063240570166
250	-0.02824475422203422	0.04304306958173657	-0.00544384235827138	0.017239889668465878	0.015688697502083404
251	0.04251265767902939	-0.017755343381339918	-0.02446850447298406	-0.013112019303288883	-0.007977875277948104
252	0.03350560202345825	0.028694554884453227	0.008343813691169712	-0.04149590932354507	-0.02523707137260907
253	0.005304317085892779	0.029759917367640956	-0.0514455334072	-0.05143746222638234	0.01531088454083809
254	0.04026531387234792	-0.014550117536049215	0.018594232677661422	0.029487428258289906	0.010958177625109054
255	0.02497966958102711	0.01832411116647684	0.028588081970496636	0.06180354804784758	-0.03836119095401178
256	0.033098022575674665	0.012249139620852582	-0.0177318665691605	0.03370591086067588	-0.025852725458262043
257	-0.03754523713388308	0.035447208756243694	0.0047348872748077305	0.0001686535848835003	0.007453364983846012
258	-0.009937506263562173	0.041368472729071175	0.031967761733999775	0.04125058429391353	0.008168993674633229
259	-0.017463180215394284	0.005246503029496673	0.02045827501280247	-0.010971377748341239	-0.004750150614405431
260	0.04042096742139751	-0.017835507424760134	0.008018179653232095	-0.0008958251201590127	0.025743607899929112
261	-0.0019103665751866565	0.038441746895437924	-0.02485067397417598	-0.011372511825980052	-0.022256200008672036
262	0.016065746468054847	-0.011510202274425093	0.004286965330947969	-0.0110711580652846	-0.03131150022495138
263	-0.02150728305753805	0.043586330120111906	0.036692703234333574	0.022225149672840297	0.0078072271427005145
264	0.044112426852447366	-0.02386531919618216	0.013228626026074768	0.007063265838584298	-0.0017239935353966834
265	-0.012660448413246367	0.04205017872828129	-0.036686708277664286	4.2483252328816797e-05	0.016702207395224603
266	-0.009227673365413497	0.025086211648482896	0.011564645213089966	0.06600967318230538	-0.01965449856409561
267	0.033858342400480655	0.0022137257380977307	-0.04350768868991288	0.032992135500165	-0.0005755996752418571
268	-0.006603245131817847	0.0345704572764894	0.03245842191748785	0.037324346909603595	0.0365145514467875
269	0.029819783870410694	0.009936456676553776	-0.03725938828150097	-0.029857665750903175	-0.04938698731194843
270	-0.019104631108476957	0.02103510665546814	-0.010658504563424858	0.04025156151071768	-0.02992556540131214
271	0.046323440552706686	-0.008825476543557757	0.01469163539824523	0.0010090769914213983	0.011973461408586064
272	-0.034924680692196584	0.03642640622115264	0.004122108751821744	0.015078942048068604	0.01946154404114894
273	0.04398239547059379	-0.023734723990660265	0.006212522883535201	0.0077671822421993735	-0.012365652197435285
274	0.042374846505414614	-0.013518589842942852	-0.0032518674575489626	-0.0038407585990309946	-0.017272408906947406
275	0.011049805061872536	-0.007042586146991467	-0.030696003065434758	-0.06266402632234401	-0.027017977127326422
276	0.04500852124307048	-0.02067597215340949	-0.015651473888883695	-0.01297297017817188	-0.002599903970727469
277	0.02809771460629623	-0.01930404690771208	-0.02540884279047587	-0.000962210914775617	-0.00884906504558246
278	0.037671411123979766	0.008314054399804007	0.03158774375136231	0.037221410212278164	-0.013275105984614701
279	-0.003640096132863827	0.027772710480877993	-0.00863897793139937	-0.0785593058528662	-0.007132916228166731
280	0.008927738480038938	0.04692635241831378	0.023974592596710174	-0.02299685675628924	-0.018191559277669966
281	-0.0025208458318866436	0.002899900312510619	-0.046852512013727296	-0.0637775144506177	0.031704362546652605
282	-0.01536425216884419	0.013814651685994746	0.009283227013029412	0.0001881238894998198	-0.04846027356788225
283	0.02875963273030887	-0.02138298328042723	-0.023161116988683728	0.0025800506162281	-0.006441327475876391
284	0.04222654664788734	-0.027600149320085778	0.001979157491762473	-0.0024241578687043156	-0.0020384288324786833
285	0.006520296168076659	0.02654459716119792	0.02013667513402418	0.06478175183973206	-0.04870294106339647
286	0.029868445936849952	0.031236325558931684	-0.00690458030978113	-0.03929439166300036	-0.040560787077907876
287	0.04241081119616778	0.011232219565705508	-0.02091684567926875	-0.011150402116192459	0.015335626378270725
288	-0.0073832858080688695	0.038748757815669804	-0.031403344796920876	0.03862010173663643	-0.005434273426141954
289	-0.034711816040876996	0.04242043507442949	0.009400922335979129	0.001440995132873804	0.012405439466334375
290	-0.019465656634997868	0.01252316305084955	0.025434261060981532	-0.01610985687733497	-0.007125358378361589
291	0.02757044034997299	0.0440794008138137	-0.0072018114712792776	0.006878340659390299	0.017679786193445353
292	-0.020608309522806574	0.05477609515665554	0.003710014039381626	0.012513678344403568	0.007572991983382079
293	0.044326378372141824	-0.02018648950105501	0.01906304982103992	-0.011325271644664372	-0.003347049111466609
294	0.038213967686830094	0.02493998364631527	0.003094644553888702	-0.017113720714267294	4.530929007010693e-05
295	-0.015147501204064712	0.04357428538549804	0.03865448303145369	0.03260063328200251	-0.0006536364702201646
296	0.025748397334277806	0.021473471738670247	-0.012879158861663815	-0.013189334301049236	-0.06357414093172536
297	0.045672795856514695	-0.017245192163096213	0.012905116277218617	0.01566242556943897	-0.00843259230923199
298	-0.027222684604681253	0.038255066752729744	0.02191062502791573	0.023010825655366253	-0.005963119856586417
299	0.016519576050849402	0.03543561069353152	-0.035956427347998296	0.021833429881468868	0.0436205272865647
300	0.03227878726073846	0.019090692934397913	-0.051567435685353734	0.007354396888476314	0.007888249863847691
301	-0.008305115261060888	0.04188532203741037	0.037980081134697724	0.04858826802510021	0.0008812446064524115
302	0.00841132489601212	0.0016891835798896824	0.05027805663643319	-0.013094107563996132	0.001291095232227481
303	0.0182599127530299	0.03851243645552674	0.0420548208238351	0.0029352254635322613	-0.031737903286380355
304	-0.001322574811886874	0.01704698085338759	-0.030852494940384303	0.07212835549043925	-0.017698208500513568
305	0.01606075973203017	0.020687838962814595	-0.04688318339486531	-0.0599860642861163	0.02622705188465239
306	0.020341104143543957	0.024530411169754244	0.022038298287574497	0.012023268991177933	0.04025769961022086
307	0.0428555543536672	-0.026640060544994095	0.007343173821441567	0.007096029130472076	-0.005409134909978167
308	0.016610795260493656	0.042858510086342304	-0.012805294735358751	0.005505055405473947	0.012787048511463643
309	0.044231725108576	-0.024164127285340765	-0.003908590420769998	-0.015128104957361615	-0.0024687998513621134
310	0.018335319280603814	0.034529566516614825	-0.0008939120227989227	-0.004330135100002251	0.015597977737190995
311	-0.03734135832060794	0.03558317506598034	0.003310282382897261	0.001651977637530942	0.008182081126397922
312	0.03241267040883906	0.02131315348427983	-0.017006911154922505	0.049155811293966664	0.0019938330608895694
313	0.021363001852716206	0.03976740931089514	0.02182419825773061	-0.035019114174995966	-0.02810143862337554
314	0.04578728207240851	-0.023635568778697498	-0.0060019911980541294	-0.0069766724072665015	0.00027552751687236616
315	-0.035426582558750835	0.03855610640527315	0.019319248394845983	0.013832159374124625	0.00040319453386761846
316	-0.031143110219331895	0.011748225271538239	0.008829365200843027	0.017956095854105892	-0.04212517861982686
317	0.03482234610179799	-0.030639080290948063	0.006064058286138701	-0.012106108340080315	0.019484173768853575
318	0.035693854414152695	-0.02886350977740322	-0.010690417779767952	-0.006463466399387499	-0.002364635775824799
319	0.0358878623934411	0.005795949843739775	-0.052866837219260436	-0.0018221845698586994	-0.002692840277768004
320	0.04193245727914501	-0.010104579898115956	-0.03519698025558179	-0.00863122984962108	-0.028513569083787802
321	0.03750045366102593	0.014122356677880261	-0.02653594560016004	0.012864381060497757	0.0008532116287818922
322	0.044142023487976724	-0.02293860311713056	0.013747753595573231	-0.015355673352313649	-0.007187735688177983
323	0.046721349900853325	-0.01432898097239715	-0.006998707053580004	-0.004831652365238328	-0.010073508372950388
324	0.01973438673589499	0.010411568662024771	-0.04350197798635786	-0.009495163563505406	-0.04043789647438227
325	0.010500524432566003	-0.009757501014995631	0.002040727448958878	-0.016066085798729243	-0.025281440832024608
326	-0.019677619981072852	0.022529576134172155	-0.03827524830077301	0.011273657304694446	-0.0311015327108484
327	0.020030909979144012	0.02587736549989289	0.04080466685910585	0.011279907678043608	-0.009211579943666282
328	0.04235343022377112	-0.025307042910728817	0.006630698707488879	-0.00347133678439721	0.0007718587394025344
329	0.03655572754947163	-0.028804304178347465	0.00852708583958295	-0.010205984731281365	0.013059997120262835
330	0.02937368577248891	-0.016396115757127964	-0.02005652760166991	-0.061097482719479825	0.030478353579760368
331	0.045076960553111965	-0.021130915528335084	0.006674269807538251	-0.005699436789937216	-0.002054974812236314
332	0.042188650147335874	0.001494298861360879	0.001444597560208662	0.003093174711697142	-0.04600722093032915
333	0.041974912118646	0.017807850521693352	0.00021015272838984417	0.03201145660322553	0.009220212620777967
334	0.028450865513779885	-0.026276319672553897	0.024304250001987653	-0.008369589114374316	0.048414808039673414
335	-0.026547060679089178	0.04497552919147319	-0.010696898827186642	0.009357998445291433	0.030099482940291918
336	0.010270154391723017	0.04764688071613843	0.03215639962382895	0.03573287317585603	-0.01125118779288497
337	-0.037397261336118794	0.03578889974174428	0.003158881500896265	0.0009977426649729819	0.009169798234521442
338	-0.02803290330031753	0.016101705514111022	0.00936322364960395	-0.006555841960426956	-0.020692146041208826
339	0.02883503478966799	-0.02125589816893796	0.017187005616610688	-0.020868721015039136	0.04850565314823582
340	0.001766824946814101	0.032383916054880175	0.03946644740823993	0.062059127017457076	-0.014599278885575582
341	0.028569378030226057	-0.021454032651230814	-0.02306455466065274	-0.0013786275691269987	-0.003878876004515524
342	0.0454452866615443	-0.015302775662112416	0.020808648430584248	0.00012092693113877982	-0.003966744868381475
343	0.019723605580693804	-0.005181112201574499	0.05947795759940965	0.03771935748903468	-0.024553048735901487
344	-0.0314747943834145	0.03195173468054452	0.017771799023290874	-0.015181255756065219	0.008914518734573005
345	0.022107423592777797	0.02660629381885152	0.03962425288508605	0.013045569632877356	0.006704620700186065
346	0.032966318628476286	0.01540109747021484	-0.026302722888763612	0.025585640259228805	-0.005944111105195422
347	0.033200346191678845	0.012390162477131312	-0.027598676420737874	-0.00701407752947164	-0.008816146071187563
348	-0.029239572441360287	0.024407726507840614	0.009575209514956608	-0.00505254065506959	0.010964663030287957
349	-0.012180257177250799	0.05254563173100586	0.004030114205485814	0.018781091840895794	0.004492296311415197
350	0.02093911251709491	-0.023210472683928368	0.025658095923889422	0.003977716279539996	0.03578104384559437
351	0.0178952707500521	0.02494885329864513	0.028459826860266723	0.01713708168059324	0.004046083297305687
352	0.034551845575832275	0.0027638475551825265	-0.04110078722913268	0.028327893535926005	-0.0061851365574108605
353	0.045558801341146794	-0.021673084019422376	0.007187481420578051	-0.009745288403023302	0.001113340112218958
354	0.04034762938945426	-0.018556330805926894	0.006575541975270158	-0.0030385578102102733	0.02564518350297951
355	0.005667332305413045	0.05287566840074128	0.004956577709891422	-0.03178445968461572	0.010665590367930489
356	0.028416887962297993	-0.025987409533889148	0.02696807840194792	-0.00719052528453125	0.04529165276580712
357	0.012797384559529371	0.029642082261048742	-0.011023883422417138	-0.0072109146050731	0.006147797573033355
358	0.04652449867073234	-0.02154460052818238	-0.005714158798597379	-0.006392326737065427	-0.0024050190076526706
359	-0.006875171791246004	0.047438520180574074	-0.02281002280842356	0.013670298629379976	0.031116987535287355
360	0.02237249266809191	-0.030791073258068062	0.026323030599007986	0.015518759191274448	-0.030217394812966022
361	-0.022034670142240066	0.027505484583302344	0.006188207874978408	-0.011881259181030978	0.006834801966145854
362	-0.0022143055813312615	0.02806468175830722	-0.06459407207405939	0.009619956976381969	0.005670490171095718
363	-0.0037034188478537807	0.03349188955739605	0.04839803326023033	-0.005183935122067372	-0.02718657107394286
364	0.018741897113347325	0.03101016106735365	0.011349168781157078	-0.023032762507795883	0.013088597180243855
365	0.044884627858297034	0.00578748715471109	0.020740449790697855	-0.015339338741385407	-0.001116533418297743
366	0.03053350001099408	-0.016768803755824676	0.02107186737314158	-0.008456265836663627	0.041994133887445446
367	0.02851364276631826	0.038869284599802226	0.015509829298238992	-0.03435177403840078	-0.017429885842580702
368	0.04573236204172156	-0.005976255177580678	0.0062804511797370155	-0.004559317630056882	-0.021429150823495103
369	0.009456058359149786	0.024784374145304513	0.02198952460644554	-0.017886163199212983	0.06013247677536938
370	0.01177181936244504	0.0005438788776176855	-0.011659488068567756	0.004287393827612653	0.01530861881195337
371	0.04545638622235512	-0.020055491248331853	-0.0060563440786021265	-0.01508693437147485	0.004275156514147489
372	0.0431022215603899	-0.026133692458944723	-0.014955431461884812	-0.008336311593642454	-0.011541835664471893
373	0.040131122651395186	-0.005501767281276688	-0.004292105880670792	-0.0047793591242954086	-0.0025353041329183278
374	0.04433216151245921	0.0005911794827468133	0.023349142335990704	-0.004557044414817014	0.0016646049898743215
375	-0.024736670465158185	0.014465390736745262	0.0038263393476532506	-0.007685228934593907	-0.008695452468499799
376	-0.008235044109013599	0.052165704121066685	0.03131759548574581	-0.004196575038010762	-0.0015679736398003037
377	0.045789496228907316	-0.006526199206736022	-0.001775335267217006	0.017273622563760697	-0.006003089740528714
378	0.04767961755868138	-0.016180273610706952	0.0009203668391447551	-0.0071549476797757834	0.0004966645148941595
379	0.012967778045766433	0.014154777379929933	0.03883067963998749	-0.03343350361253323	-0.0013377948513291944
380	-0.0032103654128180768	0.0023963131291799937	-0.01571107477011252	-0.07546720532256379	0.011406392473638205
381	0.035500562844205996	0.03196162427159787	-0.01320513632034549	-0.00572416855090788	0.03060653963658615
382	0.03706311901054328	-0.0028487759177171536	0.0317465711295473	0.004017724813167746	-0.01752752558488565
383	0.03343590688634637	-0.009843310236989929	0.038551043449842025	0.040359794909342564	-0.020720642319202058
384	0.005070090489917692	0.03512971492286268	-0.008170356896629398	0.06732745288806105	-0.017422668578065965
385	0.04444972095320816	0.0061903766389315145	-0.004876679324176083	-0.005856095699341298	0.01459941170726369
386	-0.02307768238128973	0.009504686131804307	0.014787188245027895	-0.01219593909456351	-0.016115307620228423
387	0.037186996527380764	0.01343968139314952	-0.030888000388207285	0.012748343163460026	-0.029691375150463155
388	0.012962461571354795	-0.013745811436683696	0.013167387742963959	0.005661645077666266	0.015521313756879592
389	-0.026021783831100983	0.04106576855312792	0.023706596103761426	0.035540713320919216	0.012321033714730954
390	-0.02874371885249559	0.026030290980703027	-0.016849057270195252	0.018135086344050918	0.004486379807586485
391	0.04653947258768049	-0.02125422936953262	-0.006627008513275499	-0.008566549050748109	-0.0030562343906661567
392	0.025472133130864272	0.013854514108496686	-0.04441420362774638	0.015556901685689413	-0.03922354810689543
393	0.03964388166965272	-0.025483676126074082	-0.01856336019532668	-0.015511071871766868	-0.011864394390473746
394	0.046344258615262514	-0.022137079261256624	-0.005180887273411892	-0.008401263039136495	-0.0005431001737190844
395	0.0005507686254575267	0.03472817436527291	0.04508984005507525	0.04203543658116139	-0.02834303755884021
396	0.020394086831358602	0.015182546891739687	0.05485294013244712	0.036116909800158026	-0.02937282878363497
397	0.004369008585768866	0.04501636623142704	-0.04410145188212937	-0.010939095466321378	0.005247368012932217
398	0.044208145771419065	-0.026849873492543273	-0.004016273106730535	-0.009230907973119037	-0.0022127814687150017
399	0.03738542597763314	0.020461557810270113	-0.015397250552078785	-0.027759113478996688	-0.02091555860624957
400	-0.01445312130164343	0.006409670719107673	-0.015113593052240437	0.02081234857414694	-0.04682812466824763
401	0.03649619879481241	-0.02236710187517898	-0.01062946608363943	0.003884797441651605	0.020375335785588474
402	-0.01720013915767664	0.02774224551463973	-0.02492508292699217	-0.020773194685634083	-0.034337097703987234
403	-0.00027911429546221525	0.03343904529088503	0.010471121308516764	0.026378497088420823	-0.0699177561186365
404	0.041994353859314326	-0.02889524969666115	-0.011642836073139559	-0.005321549215839415	-0.009757629204586353
405	0.005990806218018324	0.036923298936096444	0.038135334046671854	0.04771826171284793	-0.030211692908556437
406	0.01597261624646656	0.03443760888533029	-0.030296988527779213	-0.0026298663925802294	0.044732690677895065
407	0.043396425513241035	-0.029253762957702423	0.004746384245545158	0.0019904574066737955	-0.007243964661469567
408	0.007377802143984717	0.04327864697083524	0.023801913333303382	-0.04448666931577092	-0.027965081088631667
409	-0.023405246800310205	0.00921073496717004	0.002626813372506463	0.007396558135583238	-0.02366136400173119
410	0.009854815036088838	0.03599036015741228	-0.04557313250934074	0.015807587299530818	0.01945088456361818
411	0.03527461392070191	0.02894372706488617	0.0037098372463837373	-0.018363907945168463	0.000720721046824715
412	0.017417897271024756	0.03319153713732334	-0.03998034589756644	-0.012484983758657963	-0.026367853703887476
413	0.03497435739112872	0.02881556150981441	0.024524348833297845	0.02150186004097825	-0.013640606637008262
414	-0.020223011544865242	0.010496335033277475	0.012779336408674418	0.0004027606713630554	0.007956365608913872
415	0.016413649178599814	0.01766645361879453	0.049746920593215366	0.009620417754883029	-0.0035658875505913392
416	0.04090511232705907	0.001091316266840029	0.028197206813462872	-0.01843172639693941	-0.03172699555027108
417	-0.007051904515952255	0.02100984590753241	-0.02129019022720238	0.009542262637403381	-0.03240515621363829
418	0.04299026524792824	-0.010811872229142424	-0.007733251271687723	-0.003959767036824234	-0.019875706958618556
419	0.0050714498767510064	0.04852104992203031	0.02869574420266615	0.027297355230759334	-0.023669604776839107
420	0.016945613327134488	0.015294046878185105	0.04745118188103244	0.0238134453250303	-0.008000704276030318
421	0.022494433787047345	0.018163719429938587	0.03902422301699914	0.04770388345522199	0.0410647833561714
422	0.037221381787127764	-0.00680483635510396	-0.047536016938110125	0.017831433509328382	-0.012697402518112761
423	0.017167211987782753	0.021295729694686537	0.012260378297537379	0.019851464006849867	0.05541227905744174
424	-0.0026361735058013512	0.0543934559148984	0.020521228943429674	-0.016352352979708985	0.011312677911736346
425	0.022099410885653346	0.0021938445519426608	0.03930470083689589	0.028224808359934257	-0.04672078664986419
426	0.004889112898202254	0.008003189993042404	0.039126015839283546	-0.02165531429334167	-0.009544703004830084
427	0.0037473785829476533	0.02707575703895181	-0.011536155740429908	-0.08373007288437835	-0.01624958145499954
428	0.03830645398420863	0.021066924874839108	0.009536868792891336	0.003427805985556128	-0.010400570736964404
429	0.03390352780886456	0.026043284601416146	0.03479622479694172	-0.009659696662369358	-0.03576368886334598
430	0.03503853032269214	0.02818162120382898	-0.020950876632720893	0.01809456464577993	0.02266018685416597
431	0.043190427152111736	-0.02899564809908815	0.008698150083371506	0.0023707234359986906	-0.005338007581462709
432	0.04372342838232053	-0.025713358985346314	0.011215336870027869	0.01340152793284001	-0.005654688322589485
433	0.010704150595893552	0.023784063056657947	-0.04484582495438136	0.006128928584049135	0.04751642378950749
434	0.0102977261207177	0.031734001678883406	0.016561192684096566	0.06773275545778856	-0.016997523856316348
435	0.0028748620740919463	0.03445706679690229	-0.001355865101884614	-0.07226636342000527	-0.009903793205617035
436	0.047810587919457234	-0.010055735674824729	0.006257202508619546	-0.013842824852439243	0.0017061769707513506
437	0.04416491767986911	-0.02010115561653026	-0.003726734028157482	-0.018630251922459755	-0.016019719045881044
438	0.04329968955034309	-0.02619330383547687	0.013677646950680928	0.015703438525865428	-0.006717510670512262
439	-0.026307942576825442	0.042357133772126285	0.007007156953294407	0.009518723807032193	0.006194875600521624
440	-0.0030012749897289897	-0.000434967240904122	-0.018419311268152452	-0.06245316550158647	0.024605623930696176
441	0.009128050356546869	0.027723956819021244	0.04725717428785239	0.044025081080554807	-0.026597303982649294
442	0.020234205326853088	-0.0248063043317251	0.02216680035658863	0.0055660941708150355	0.03817254081389991
443	0.031227644783120685	0.022174413306350668	0.0011353761038706144	-0.046371586416401205	-0.03981085867433489
444	0.023349779379042864	0.020121551611465466	0.04662919147373482	0.04715991729216905	-0.019138286606404504
445	-0.016190282262157914	-0.001844016852045593	-0.02970455601186784	-0.07981287130374168	0.010547555908962076
446	0.043048729167588805	-0.006614446451334712	0.02786172134937846	-0.027157799721028265	-0.006562356788115624
447	-0.007822773989548908	0.034230322043849536	-0.034782982026966086	0.018630017249400964	-0.03088601686017982
448	0.009932870212768452	0.006198553653211285	0.03381407577105866	0.04063101791286829	-0.00823444262705442
449	0.0423577235041156	-0.027226237665649324	0.0031057904301489323	-0.00318335095549799	-0.0006771464790950229
450	0.03875578603008499	-0.018959315591854892	0.011791102086974741	-0.012707051061917466	0.025132268698078462
451	0.015770119803131685	0.011855580879604378	0.05371417543459111	-0.009715638887332519	0.005643151889677853
452	0.0371368023623294	0.0035635467795517043	-0.02407725303162943	0.01136699478197496	-0.030240865798126796
453	0.016103492496977134	-0.00408633764113736	-0.002577461779624262	0.00569692748631168	0.018966656338111877
454	0.023943476985519647	-0.016938115629367402	-0.041359566552038506	0.024070425694602646	-0.028927515643818187
455	0.0164420640703398	-0.009926261111861876	0.03838841574677642	0.018614695658870858	0.0442463901622633
456	0.02421475143303712	-0.008167398780948186	0.050588540280956724	0.005997223505072097	-0.014692740920891595
457	0.0377235521141397	0.012234118953277839	0.01520958891209908	-0.014617673972903738	0.008315132444006616
458	0.023613474504843426	0.034679541068152825	0.013126257412419993	-0.01338891899204837	0.01792961542118892
459	0.014102496782121283	0.0066817054894452	-0.021323921142609083	0.005331668054964062	0.010451291353572806
460	0.039779312387211926	-0.013344936419926293	0.010866734417387764	0.014736246331568349	0.019027021506658512
461	-0.026708206414579595	0.024481405726723627	0.018961708415437203	0.012550374120616109	-0.007593228409893725
462	0.026701810655352917	0.008068779911874876	0.021106006387791396	-0.005238698688304476	0.03353344039104892
463	0.02282614409760741	0.0036093477914987686	0.05048229552130678	0.04238875621218148	-0.0037577969837816923
464	0.02208867199550013	0.03049859395293792	0.026064167373921206	0.028222066592309095	-0.05629182898658594
465	0.020944138683976352	-0.021055456177630258	0.035110521893609935	0.0011999677057007016	0.03347674879718761
466	0.020412387290128446	0.04583881260667005	-0.02465644009212037	-0.011717823523713443	0.014659370388283676
467	0.019229154175577908	0.016234116523938275	-0.059320949036364125	-0.022507464259146105	-0.010087313760645703
468	0.017203837868857912	0.018019946581169618	0.045981668009215826	0.02802371708860117	-0.0030752374371497814
469	-0.0009094489719764423	0.05619459041021164	-0.007623198775082161	0.013195156305186747	0.012356985986503142
470	-0.005076866671679944	0.05297459663471724	-0.014373279002673737	0.014149631904404197	-0.012152519619319893
471	0.027577783107555993	-0.01986150981600744	-0.026664403380352673	-0.0018491876866974244	-0.004570976765906717
472	0.0056958172631702605	-0.01739295704526371	0.018001245898292093	0.04072069838644897	-0.06598935828538206
473	0.020429606213314	-0.024136216132998163	0.028754798620958786	0.00790144762881274	0.03442560356326922
474	-0.030083984279206256	0.034201612953312914	0.021534229845301928	-0.014209761605630774	0.03129326138703126
475	0.013542104844757432	0.04698346508306358	0.017995481591324084	-0.03711435240429854	-0.021428141573606806
476	0.04748431558133329	-0.008825907128376805	-0.01235325477100014	-0.016211482867291828	0.003867521056691215
477	0.04237967692017778	-0.01196532205974073	-0.02056295066972709	-0.0009404611158121706	-0.004384274722853269
478	0.0025734401402989398	0.023849962077176226	-0.03548345243335112	0.021009193120220124	0.01094113324942207
479	-0.014340161969889789	-0.009404763626542634	-0.04078875881023468	-0.028539509560560575	0.01305247174133205
480	-0.03357603834548359	0.027186698572418077	-0.008261598008386259	-0.025720853824081142	0.01247566551438624
481	0.01425869270584516	0.03625783600643234	0.009794990185584678	-0.01946424094662351	0.012053829941568247
482	0.03226164838879434	0.037775568502729465	-0.00968574110349122	-0.023786978232290038	0.009237807311749247
483	0.03571703367549596	-0.006260846388810044	-0.018593246056283166	0.04846943672730161	-0.026631383407058503
484	0.02157669171036168	0.03876318214573883	-0.009788398888538434	0.023798041812673636	0.022949147004195723
485	-0.014604071612000651	0.018138811779111072	-0.030078639565083103	0.028320189523473583	-0.027793287748188126
486	0.038700166227007116	-0.018619596020088773	-0.007207109561625148	-0.0018367869075717898	-0.03283524005124217
487	0.02015148630389636	0.030839221955982984	0.013737064727614393	-0.0017372675029963312	0.015097914847309614
488	0.013929899153040446	0.011078473458250627	0.03212483523333553	0.01904690172419465	0.022778723354595472
489	-0.01373493810165032	0.041249768810630194	-0.02654672955911731	0.00404013227984404	-0.040910992593266936
490	0.03177594252074118	-0.038678923291166324	0.0067410764595684375	-0.006601325044178526	0.006935848582488237
491	0.0401206049190309	-0.022904626510253913	0.0010049042227447075	0.006244959240018681	-0.01904040866326549
492	0.018761848358773408	0.0197809273559015	0.047531053858299914	0.011094696292335586	-0.0001241928184989968
493	-0.01943319216091389	0.05014401489612263	-0.007434244050051123	0.01029676552330733	0.035521633604353973
494	0.04403058061229259	-0.018406300966981638	0.0021417763027937013	-0.002907361850733716	-0.004122142506251588
495	-0.007406734013654227	0.0322942690584311	-0.006806845082549627	-0.05299974361562229	-0.039360643188766906
496	-0.009853582928379895	0.022880427768337458	-0.03291597199969992	0.03409062764058846	-0.040040726808108024
497	0.01962897619616799	0.01514600572334068	0.005712869310109985	-0.022316144131282	-0.011305374903652564
498	-0.0032061932220414507	0.0012565670638302311	-0.022852008972330726	-0.06347922847034507	0.027908352748738537
499	0.030773829924357718	0.0058542021582118665	0.001948501582226493	0.04648569628408681	0.02672701743784678
500	-0.013909274658209025	0.038066649870767806	-0.021304912127959156	0.014577295386526008	-0.03293613934738674
501	-0.00713630763882009	0.03525155375466338	-0.035528876888469146	0.018441775038790516	-0.029134949541492722
502	0.04527855905738959	0.0013445305971762438	0.019096362239927736	-0.024847451885257388	-0.008638933592078468
503	0.02714620054812183	0.015335398206620943	-0.004342588101591827	0.016310192203981378	-0.015203350872206072
504	-0.036242932223658486	0.025929871942763007	-0.010970311728411132	-0.001255830263929363	0.004864917380489777
505	0.015137396954977551	0.04207009309063923	0.02136692435667422	-0.04102943928127669	-0.032726828158734164
506	0.01415008128295306	0.012569865483099452	0.038235423383557766	-0.02458702753948707	0.014623731669455567
507	0.014251125026215526	0.0343103853508122	-0.06032394948680503	0.0014709052089122668	-0.0013200717057565276
508	0.02258454837913332	0.036660472276502896	-0.03369741879306849	-0.00047446863063771986	0.010533998159184208
509	-0.032284301848753125	0.04019175660405839	0.009195211604037648	0.01971216943218128	0.0023464936074041763
510	0.010580650976383733	0.04596526817079185	0.01824296035793206	-0.04040546253429252	-0.017289058005098487
511	0.037860874694550344	-0.021598046221810045	0.007860938354067933	-0.00495138789066169	0.02206254131847537
512	0.04136389552712612	-0.0007045442054508891	-0.03238145438592447	-0.01173063329300579	-0.025344480188300537
513	0.02266047206852961	0.016256110605695092	0.00022192735621110281	0.04258826057541978	-0.002589686673023987
514	0.024456037854992042	0.017258538534519675	-0.01146013200726883	0.006949085126172114	0.06154819587408955
515	0.023545819216617192	-0.013697653756708748	0.03497308722499414	0.0011195625179070711	0.032213683958450874
516	0.009812943120787012	0.009129840070629227	0.03539514267793431	-0.027429427917419886	-0.0005466877534630654
517	0.012452898650449898	0.030804614793869967	0.0007955866479058252	0.020599565379939736	-0.07953954999213896
518	0.028802774868736652	0.014760071734979079	-0.05570650458508642	0.015525320419184335	-0.006600677787630912
519	-0.013311740362949994	0.03595573183905197	-0.05277004944761936	0.012603234306618614	0.017129641619418774
520	0.009580379180447907	0.03351440197060043	0.009620881118072749	0.0011988963567875109	0.006324356255418062
521	-0.0026520031620212233	0.02908965665666734	0.008437070782044804	-0.03282076003895493	0.010635932177939471
522	-0.03174615876257359	-0.001960786593297541	0.028115343703778346	-0.007168269884466985	0.019129119635551507
523	0.016816581372364834	0.01428605629342478	0.04621202451599292	0.014709571466936692	0.0157739078419727
524	0.03537084354695183	0.0077598354515150975	0.037503783050487995	0.04016545554707192	-0.024538278603962953
525	0.019103607576913657	0.025632423316266785	-0.004176975018464549	0.0184053857527401	0.05972745971454189
526	-0.011100502092501447	0.033369693397391716	-0.039266451315734426	0.018189989525903266	-0.04659044685592584
527	0.019960111743008976	0.001948983728215984	0.02844102488431898	0.05758359481124285	0.009532293266992465
528	0.022012900751249526	0.03206844106455415	0.01954569524091151	0.002317424885645629	0.014756371741701286
529	-0.012070976856483505	0.04212535014099558	0.01842431859102255	-0.04396686456704832	-0.030135770437908146
530	0.02628182543758555	-0.025474256446791903	0.00951563012889545	-0.006285077433639642	0.05286809440697056
531	0.043287457370068096	-0.013935021027143623	0.0064287630825469524	-0.004598292389088903	0.021760378017517353
532	0.018681991465563295	-0.019456592213323087	0.02906532388939163	-0.013511140296865239	0.03715189785300258
533	0.03608629717219749	-0.02578623621617165	0.008755540061849167	-0.015461082410181886	0.011363245558713195
534	0.02954503008896003	0.01605411602974446	-0.045048703610556996	0.02759925223294463	-0.007892538808487047
535	0.03974911717275593	0.007753645741924108	-0.03150223133660076	0.031398346541128136	0.01498950653716571
536	0.025575793525058874	0.03190850802995404	-0.036651547230614485	0.016549808193690462	0.02641260894626596
537	0.017676793129808233	0.026544211239358465	0.020613232591299203	0.008439204961867997	0.004437482235704881
538	0.016645735468739906	0.012648977864817522	0.04961105780751044	0.03919511240985613	0.0013133248157985338
539	0.013768516707742607	0.010443582281903854	0.03618376839809151	0.015889331384101896	0.012939006926637067
540	0.03183666572504769	-0.0036854548944789105	0.02317250617968958	0.02262408711929709	-0.029387096082385423
541	0.04159634327185935	0.026824985163610038	0.0016028408480534366	0.007456178064031464	-0.005211063788399876
542	0.027442816619190773	0.03133755755635754	0.01596461528149856	0.018585734240961407	-0.03790744999792047
543	0.015461985825503555	0.019411797755551286	0.029880497048707422	0.032836912497829815	-0.012486672491503977
544	0.018995650714634264	0.01861304269198726	0.050650615858967775	0.02613374444793946	-0.006805553582845009
545	0.032011347384163884	-0.0252267227286482	0.011615720907281408	0.009664329515962375	-0.0033203714455430876
546	0.023704816012596178	-0.014076267368907599	0.031847971265602217	0.0001341795447230601	0.03666557510975496
547	0.013196906701234938	0.014087404379062309	0.03324209063190862	-0.026988971985691574	0.0040940250794117795
548	-0.013414341286547641	0.020841805037425463	-0.026812663022749376	0.03778046656170956	-0.0327590173217866
549	0.04320520951306959	-0.021997032545332765	0.015477181395347591	0.022438852310786923	-0.010808494835533802
550	0.018584439087887115	-0.012767264881585761	0.01891881594727199	0.04943308582395621	-0.029982197650156892
551	0.009510382139835847	0.058230571264526666	0.0034308223473741703	-0.01695361186321178	0.0013945401210878963
552	0.001161221955429905	0.015183903206746934	-0.014538259802389314	0.04532142258480533	-0.04382298556419752
553	0.010878853830458531	0.04429266293715908	0.01467675368222381	-0.05568252335168056	-0.015526664098116238
554	0.007736786790700143	0.0061233288700152195	0.018941538210239646	0.0012675723632169773	0.0322982988232119
555	0.012015501825057348	0.010365532151861378	0.04562766577531393	0.020387369106044363	-0.006686739867049373
556	0.0427589884470459	-0.02068464484599038	0.00428477959031873	-0.008586905037127666	-0.00895372872778035
557	-0.0037884221031130364	0.011230258132984285	-0.07028955052425026	-0.013792624163315016	0.01168765951979923
558	0.021151896695130998	-0.015065674126042587	0.027103455737937012	-0.014556949864184106	0.03515204451521123
559	0.01757348303027577	0.013700423601214888	0.048968332156927315	0.01240423339710436	-0.0022055312892442645
560	0.03650816013698203	-0.007444025947809485	-0.03719062980346533	-0.018571764136166936	-0.03931307874438254
561	0.017230005977539407	0.015944672640838212	0.03561863231994511	0.024708237324327198	0.026816973785474058
562	0.025866711234366176	0.034914594232162775	0.017715745604617777	-0.048174499169105926	-0.019945982366047377
563	-0.018735221087579367	0.019896622383255447	0.0038383068365216992	0.01526495350327357	-0.006364243084035715
564	0.004164769230909208	0.013856023377552248	-0.023523508060060476	-0.012041295371669447	-0.07571050110076673
565	-0.0014024884784556207	0.0046867804426456395	0.00827977598142343	0.0518213684895256	-0.04789711290621897
566	0.042499598284479	-0.0006248805524941722	-0.027597122263061342	-0.013256927483083825	-0.0073734793297521774
567	0.04029539141320178	-0.01713837795978999	-0.014498356341563583	-0.001120202016144651	-0.020264773659597706
568	0.03057237647884592	0.010854048035778345	-0.026582572388450423	-0.04793098884306426	-0.03268716492543838
569	0.03631724545329175	0.009515107305183087	-0.003785278390802335	0.0005239881430126296	0.021626464910299743
570	0.03194282694671327	0.03416184051568359	-0.02211549691747608	-0.00983785638530742	0.024719978642822566
571	0.015229105233323726	0.026438909715135784	-0.01791057947119276	0.017649371813307908	-0.06621532632096301
572	0.020721625739904843	0.0038641289176571105	-0.0563886145316411	0.016534614630413592	0.013749508050186213
573	-0.01665292636185791	0.05126748947624208	-0.012229450083034457	0.001438038722639801	0.018465325768924148
574	-0.026122956511040744	0.03700416102195108	0.022453745407012005	-0.014691615441154215	0.010133622015269354
575	-0.003273387804269336	0.013582012383825967	0.053842621577142945	0.016297458845323822	0.016896203868820004
576	0.01590377046943323	0.04778140025094032	0.01738863338863477	-0.03491164530782411	-0.019087340076092293
577	0.0382108345708515	-0.012808201874919814	0.028068140586806168	0.045910124959743843	-0.0005745010328301965
578	0.0446076540595804	-0.02122700376254995	0.010555430189477551	-0.006068321480685663	-0.010398754973983803
579	0.013123111012946317	0.014457385394835456	0.041940947530918066	-0.03487139616472853	-0.004155723830986938
580	-0.02734730043922874	0.022032572716502965	0.009953160914527172	-0.012937107847947308	-0.0070670837574897455
581	0.001918756171191391	0.044616172681846984	0.039769557984501394	-0.0177841001432681	-0.017801822392681518
582	0.032660606833057285	-0.008397858351657224	0.017856904684149928	0.009128732577355586	0.01104610755897171
583	-0.016160783900470824	0.03983106598926532	-0.027964191516184327	0.005261154868467268	-0.042071151174870716
584	0.04792478412292265	-0.007977200679868804	0.010956673970862509	0.008491548552789604	-0.0005009645723668328
585	0.029399300111946396	0.0025578861062197306	0.04045547188041019	0.030556697010570247	0.02832718328343579
586	0.026013000863602302	-0.026357756880007816	0.01285323547863286	-0.004320333154106979	0.05932799227993622
587	-0.010690505475912751	0.03778742404316601	-0.03658556547892657	0.011171329546579865	-0.02420359358401572
588	0.033984955819249964	0.03212854010630904	-0.008101653914774161	-0.004313261370264751	-0.01705026583721322
589	0.028817704426721078	0.015006122099978161	-0.05578426698992556	0.014926163307562697	0.0004804609606912357
590	0.03879895346341852	-0.0007021528655691684	-0.04649387097850311	-0.016331742747505616	-0.00925209658006403
591	0.02582901464860984	0.0045762294358784724	0.029762740588489486	-0.007821411298640122	0.028416745655841985
592	-0.014814783803192053	0.05442396165747877	0.006372336883700508	0.0015381623659939826	-0.00022161615835450228
593	0.028066025443992955	-0.024710096352891377	0.034128627422221745	0.0012710232323259961	0.04007122300080718
594	0.028157044553130797	0.017434585167989	0.012222829271773684	-0.01762239527906005	-0.004604159528465093
595	0.019124097130810196	0.00316955684797264	0.015087503955689818	0.002960137449596217	0.02809661113143883
596	0.027844476542461867	0.03480095081696749	-0.012126179896420784	-0.03277534457028527	-0.01944797698236466
597	0.001258408824566464	0.0011466311130941325	0.0035574597377022346	-0.05918705751021668	0.022185151355051183
598	0.042708678937516946	-0.022596258314013122	0.005693589247753381	-0.003440066131807733	0.0014406235309662584
599	-0.002544343756418381	0.015073242865288432	0.0004330522502278182	-0.005454701543776315	-0.017688391360428872
600	0.03500509233947115	-0.023027826146900448	0.0058560490564713895	-0.011402228653329016	0.016118531712962673
601	-0.008375645820380521	0.03497021488729823	-0.01548219079503602	-0.003941400517115314	0.03362518222111846
602	0.03752364916051898	-0.005303007474058591	0.01946008979860124	-0.007298417551089574	-0.002424467657498055
603	-0.026508931416147897	0.0365749531803781	0.03294394040965197	0.03574437654646895	-0.008867666358388064
604	0.011931685512948884	-0.001943827745082449	-0.019162198538222642	0.009169506361122643	0.010757724985587209
605	0.004755710421585247	-3.191363946930822e-05	-0.03225059410268285	-0.08381259802078533	0.013395889680463067
606	0.0253869524505565	0.017947373007107588	-0.019219561686304277	0.00033636928180693406	0.04608135265900703
607	0.015646783376504377	0.012894309329282382	0.05108888151837732	0.00811039347202726	0.009785469966072798
608	-0.004889415764227977	0.0252800664265973	-0.0304780582213524	0.03167275167319448	-0.04413534942964848
609	0.0024974697600048334	0.016611857279373036	0.03363889663166874	-0.034701771248638	0.009241733088489286
610	0.016170938514222393	0.019426494001069505	0.03808430809828415	-0.028963641723337437	0.004999948144509372
611	0.009245402775643074	0.023583691136408808	-0.037679548700428014	0.013392909634428813	0.04103982257345398
612	0.030395016496473016	-0.021513610727060966	0.015299755061129959	0.008171196935531491	-0.025391139071202343
613	0.0005022222160750556	0.03454775578816245	-0.044064632255462255	0.015092762634227328	-0.053388215830026536
614	0.04595115918982292	-0.018619018226634778	0.006231072371940556	-0.003475979825673552	-0.009300734298365839
615	0.04655755224428001	-0.021202485476651132	0.001380706700936566	0.005021376155559152	-0.0019281452453084995
616	-0.003992263060065742	0.052882708217088	0.03063675895451332	0.007266702939885655	-0.015928559200529383
617	0.04533473734077945	-0.021829497887595136	0.010039795655349588	-0.009038022698034776	0.001072498892711424
618	-0.007698666548223912	0.020731222303916767	-0.03420917135276697	0.03229876577626772	-0.04355164690762344
619	-0.028673033729180824	0.0391026990953143	0.004380945994793279	-0.005425014158492672	0.011063383815309148
620	0.040302864875053405	-0.017639119255888666	-0.012987020961591003	0.0024245612894628578	-0.016225358610654956
621	0.038300622476734346	-0.02078699247178552	-0.005095962679528736	-0.0005026441742743594	-0.03073626685869364
622	0.024723211221310104	-0.01044404306612249	0.03302933500940765	0.011818475968053863	0.03792559642144288
623	-0.020928778869318328	0.04030865813379294	0.018808598579227922	-0.012832697908026188	0.04671358718054326
624	-0.007545554439133376	0.04601550965196087	-0.038377208861901185	0.008760978198424437	-0.04013959574296905
625	0.019355892973298327	0.02761390601464537	0.009925740911688574	0.010426634958525787	0.03900644834885008
626	-0.004192345305385971	0.04386837554958471	-0.004630704515787956	0.008893286801510056	0.00431316894768142
627	0.008744759522591421	0.011173343038758075	-0.028905663631142203	-0.08121889149748403	0.028248391553234886
628	0.0450432183143085	-0.019328472455143107	0.005879861565993399	0.004974331559725491	-0.006722774492064266
629	0.027705439659913882	-0.005636407784604626	0.030244599873355673	-0.020268637704833246	-0.0012927133460737118
630	0.04616310867122196	0.0007415222250304007	0.009991520382369517	0.0021626263502084932	0.012615241058636602
631	0.030171549278243306	0.0288824305938286	0.017555497500102622	-0.007474876381962044	-0.0020541733879332912
632	0.0023670091972083913	0.033231283255477834	0.02149807187020357	-0.032763067745553244	0.039354329584905784
633	0.010909538622935273	0.009134686904483859	0.03869977966826914	-0.028074039156664402	-0.0014540565676931338
634	0.03068581121643789	0.02718231381873746	-0.008855638955439192	-0.04684241751024089	-0.023096035532952877
635	0.027537389750644185	-0.005517468110939774	0.007912579464991881	-0.0007037599711575608	-0.028126423033837566
636	0.006485199699877828	0.04243349655547526	-0.0035109871369133914	-0.008532074652057846	0.014451073986445712
637	0.035399892871546615	0.00154968105424527	-0.04447835708550409	0.03001634649345197	-0.006547809785878507
638	0.04403441578952407	-0.02709607373452748	-0.0035639903549614265	-0.007479673736121828	-0.00591278605809008
639	0.032999128239783716	-0.0105297914987732	-0.031614900485906254	0.017672203608274515	-0.04525468770834574
640	0.017906303682417316	0.015330247150288419	0.04776232502342759	0.019122794450096445	0.005248679112458588
641	0.023839898837474456	0.03713921752449272	0.01289061107646958	0.005996937282660079	0.00779362027818303
642	0.022543119048126954	-0.027022854304843354	0.03897611382617923	0.039032935229542216	0.006318700374457731
643	0.04731565166496224	-0.0011992137537374672	-0.013073017962509838	0.017930760942916384	-0.0011501042127190296
644	0.033337009768548274	0.023723523458196324	-0.020620981610291397	-0.015583783761200221	-0.0375391076401589
645	0.016006132678846964	0.0037111432458568705	-0.0062041076348539935	0.021313385488707905	0.053487693845583224
646	-0.016217360718228886	0.04072608797085152	-0.01967639042722726	0.004898818441065333	-0.04639796171645449
647	0.0346812697360372	0.01564267196122074	-0.00239639197692635	0.004405098101468806	0.01743073487046278
648	0.016184059842779406	-0.024101804502576978	0.03197935419069416	-0.018655898380961083	0.03319472197477587
649	0.029056569368389417	0.02675655352156631	0.009883643054428834	-0.06371227797954492	-0.007718886651397179
650	0.0233918957958909	0.007494301941900756	0.030269638664077288	-0.0035996611989583724	-0.0747989605020409
651	0.02982587748297058	0.02087635663037864	-0.0411653594683623	0.015105521447026855	-0.02402989325471536
652	0.04576438112042483	0.003982128991705572	0.008625030798839143	-0.004560647526538209	-0.009266559423845409
653	0.006704572694744298	0.04698545205698813	-0.014435887699048527	-0.012185265675945895	-0.00040204132370752867
654	0.014078313892412268	0.015548804327234045	0.03692269130275518	-0.026357049139440432	0.015344277915324582
655	0.029631708409170163	0.025044470772912657	-0.0013582528682455036	-0.0018788390384821448	0.002993753323588887
656	0.03496436649552948	0.001686094693643242	-0.014065723835534961	0.008298680277289151	-0.0624088827194794
657	0.03996405381823398	-0.011044792736127632	0.02177410481660471	-0.012771272938174798	0.016544250916438068
658	-0.0040684079183027745	0.026564181328895934	-0.044578046148112886	-0.0355724186512011	-0.020508518707162176
659	0.04252514782452357	0.018256372658177922	-0.0133377674607884	-0.012681355046522806	0.008580107882497882
660	0.012347164889940249	0.013520940878769682	0.0378700306030476	-0.010923252538809077	0.009519445679220015
661	-0.01638316984474104	0.04174055081534406	-0.00834947742433015	0.0036448982749862397	0.0194070571755413
662	0.023085084569570598	0.033728188516949725	0.02325833771263592	-0.017290752105371152	0.029017968679652256
663	0.007806913590558324	-0.0036741800017051525	-0.05735488166937165	-0.011863777273017746	0.04723717684268033
664	0.002354933385552919	0.0333054429913444	-0.01780700036639955	-0.05551157686805136	0.03219905838669977
665	0.028833041618630383	0.008282848654746183	-0.05663903932394338	0.01768803700811059	-0.029639127439869364
666	0.0074623372535512576	0.046731719099057684	0.010636541883726357	-0.0026693806938858696	0.017674543135800372
667	0.03979715874056936	-0.015963698575044843	0.022669746967140567	0.04433474065813304	-0.005045290888788383
668	0.03679746213052943	0.009770385124951635	-0.005150870559401624	0.05612989032855405	-0.002334277165814238
669	0.019285826202344303	0.00550156638174791	-0.028865738154908588	-0.0033398984721542306	0.05163997750589861
670	0.024548951759074046	0.005851526573577336	-0.015808579409644818	-0.052874233082159924	0.057438133853861206
671	0.008151864870099916	0.019038521657288383	-0.058968955369071485	0.04162793981117037	0.03457663186487549
672	0.02821655863845482	0.004345489805631561	-0.0025620041365118393	0.009792972517666636	0.06208898044920924
673	0.001904165090574363	-0.00045378022183631357	-0.043429735574709846	-0.03274620145366204	0.04624423692950077
674	0.005574619646850364	0.027292767803974563	-0.035973295335109214	-0.04374387479360404	0.013777166821132768
675	0.02779076803429867	0.014388201913638207	0.021731305011523934	-0.03479624609809652	0.00470822412493902
676	-0.012902613132860712	0.020557478721889993	-0.02687902033290575	0.024330105826748608	-0.029878313028012783
677	0.03645379373276454	-0.01851258726347465	0.024926943685836485	0.015778567296979414	0.017020550237821005
678	0.0040695657453130975	0.01017289604330945	-0.009534895609878634	0.0022565250837341946	-0.03392783997303222
679	-0.010810324471909735	-0.014052544624992154	-0.018294060859536183	-0.015897764142463657	0.018256656909482884
680	0.013570718558977433	0.02798616851239295	-0.009653781147824624	0.000501871286054487	0.006887360541648864
681	0.018332817641173428	0.03015013339005062	0.010778125557159096	-0.021785246013768765	0.01715569779103015
682	0.027257261811107294	0.032591328345969416	-0.000410340633786624	-0.013589274328942953	0.010801179531776735
683	0.047109190278712174	-0.004021188624746479	-0.00018117277663792417	-0.012107659643475878	0.016245646522283202
684	0.04575935497859881	-0.019841584540543508	0.004509994640265397	0.005817728459507345	-0.0003944741685443212
685	-0.030812998454772863	0.01072970935680798	-0.00027713707256193915	0.00872199973763388	0.016342653240780453
686	0.030152715747763358	0.005688109362740988	0.028652603921626777	0.05117605981578264	0.015095628360471802
687	-0.01977002025563372	0.040465279629967765	0.025717976155713307	-0.017574954722420107	0.03770969466857999
688	0.016903686712540625	0.031001003445001608	-0.015141969330091378	0.008011478388991996	0.04588206085729233
689	-0.005948593082811509	0.01817117082686233	0.006682883860102467	0.014834296520364484	-0.03018818733048228
690	0.01804111260084013	0.045614741592726674	0.010611921686074124	-0.03828256300416246	-0.011503449075784645
691	0.019355435639236543	0.020522922141295405	0.03843487023992037	-0.0021002512229409756	0.013229715469438076
692	0.022054664174299857	-0.003718909621982029	0.0044464049112328905	-0.005354798705369686	0.01623069420371824
693	0.04660682305268225	-0.0021191114815097487	0.012146324243033699	-0.0006618123429918748	0.0014818592625698477
694	0.013006210225264206	0.02415559768766242	-0.05870405687796911	-0.013620905045057589	0.04536215375241521
695	0.027352091154771014	0.01598492205364965	0.009092214322958543	-0.05596955693488055	-0.005314373203143763
696	0.006806483149667154	-0.013824749778243828	0.01187173487775402	0.005854178465509417	0.017270319762807414
697	0.015330482917022886	0.0010088372242541884	0.04617377511365563	-0.019078908612722385	0.032238080700100334
698	0.043104501264185496	-0.022648791164365356	0.007517998247284239	-0.008745361372286656	-0.004912482534685409
699	0.017597719030697977	0.034994538372542724	-0.04667906858277463	0.015284696656844435	-0.02168927207141232
700	0.012712459925448321	0.05196543764932203	-0.000547696122551751	-0.017505495738437758	0.021441947694510088
701	0.03164042012970325	0.006616732663231785	-0.02764737888319053	0.02142030920612269	0.005185053206674784
702	0.010893022533714826	0.04228700063687269	0.008309929862805689	-0.026767670580028165	0.018336483810059787
703	0.02289292461320238	0.018680529125419766	0.021283170168392682	-0.028583628061226215	-0.009115336834119876
704	0.022319552457689493	0.008982948109315146	0.03487179716384697	-0.04108407786163888	0.029230462828935978
705	0.020797702659167597	0.02830921242171529	0.03531411389907233	-0.011516450257896375	0.008934789125521673
706	0.02959093476971417	-0.01286770155837808	-0.05562113960001179	0.01919222699417322	-0.0001567934335936202
707	0.01852780883903888	-0.013538853348559709	-0.028931520037411056	-0.00746196502307234	0.04729299890308935
708	0.01566228564627141	0.016801189836597664	0.03637847132762904	-0.02490708949654809	0.007261028527708062
709	0.009267321567478587	0.0411089517442126	-0.013871676920270104	0.03893712185133804	0.008893500229839882
710	0.028962781257877903	0.00554260680741898	-0.05609448353904589	0.017981975387248068	-0.0277416800850601
711	0.028158952517599083	0.0070487463516562335	-0.05543120791242794	0.01709646166061461	-0.02768798390274425
712	-0.004608283558095955	-4.322180440038088e-05	-0.012122087528586518	-0.0724890348974017	0.01096221122094423
713	0.04123196460361123	-0.003219963955705153	0.007533759994268308	-0.010429844800559761	-0.011236543967437309
714	0.033466516479990466	-0.0012741853618557788	-0.049789103863877825	0.027056652183314146	-0.010307832612762748
715	0.03741511947410785	-0.0007688393555230876	-0.01639074430421367	0.014271026580461229	0.03337262536311353
716	-0.02400311988897921	0.02607788373170935	-0.0026038151797658413	-0.0008110906628223557	0.03013049770289706
717	-0.006795476905316623	0.014566249974554683	0.018124500016723957	0.04352240419524963	0.006269729776603789
718	0.012509145258628193	0.04513770375419315	-0.006621949752423973	-0.0564343784860928	-0.0091235545630572
719	0.019117589558315683	0.047194963420324046	0.007512543043104593	-0.038470996932165644	-0.009441580409113547
720	0.04304054102728805	-0.009614838548157471	0.016062839663215922	-0.018103498419599892	-0.01054985767024462
721	0.026988222565565354	0.04105119911114066	-0.010510222500371326	-0.02548704035149814	-0.005201281314275023
722	0.021196260609111707	0.014022706129190895	-0.04252186915903317	0.026423837266894342	0.005179793980917097
723	0.00038852323036871867	0.005274759483621646	0.006461883554336234	-0.008698142137285638	0.016196755231842767
724	-0.010316816399337953	0.050790495469867754	-0.01777355912363744	-0.03506740977335123	0.001644473278590146
725	0.03793905127110456	-0.01163612241667495	0.02930050396175707	0.04655812176802897	-0.002537006604632897
726	0.011874856759778334	-0.003890719897164402	0.026852926978806292	0.017346474400996896	0.040781423118510705
727	0.012954477299977778	0.012860824716543382	0.025105308628471105	-0.013732280794160171	0.02103074062753755
728	0.028909224089777925	-0.025549835597754145	-0.03566151685683101	-0.024657511213367293	0.021323807131564135
729	0.04320804628724689	-0.022138145758514017	0.014455208925312376	0.010003501679937443	-0.005745839606012759
730	0.00410234066385833	0.012240373902355483	-0.05233232095777823	0.04393657800262945	-0.01046106869883978
731	0.04194497906674646	-0.02510003786083565	0.0006696302294524716	0.0020757106156729242	-0.00307901482202583
732	0.02160617976351226	0.026959245861560517	0.03319259078268642	0.004713485426755002	0.017328041326390906
733	0.009494415371454921	0.01914450332644151	-0.053170246410915604	0.013019506372312218	0.05758656904977582
734	0.04209362895727972	-0.024394550886382243	0.008980559515219847	-0.007304040875511769	0.0011161744530836795
735	-0.004116620830091528	0.019691764766571935	-0.051614588342074004	0.01680300569813301	0.0345461698885203
736	0.0187607917154073	0.03274110200339661	-0.0032982264464869156	-0.007040427836585167	0.028178484643191826
737	0.019711236092395827	0.02550402035808957	0.011407953010022554	0.026268311218339016	0.04250826623182898
738	0.014168092249108843	0.045553727209447094	0.03463038499054924	0.00965616419625633	-0.0014990182030581516
739	0.0219282031406454	0.016856585033722813	-0.057284392858363974	0.01641846278211356	-0.016572418977800207
740	0.029139636017140074	0.0071341976740191574	-0.05275748989668093	0.019272268487267732	-0.022240309045567293
741	0.03875892308440375	0.007916550368366077	-0.0048643564897656085	-0.019895571431123235	-0.010134756478915367
742	0.008997433965918051	0.011920979774494715	-0.05339009733471578	0.018294592442812663	0.05575686839023152
743	0.016978122264053278	0.013176679552735998	0.05010956030110046	0.011145604811877326	0.009271841340932946
744	0.014387174224891277	0.04052236826661576	0.004782919835168745	0.04835886362937617	-0.05217222861381864
745	-0.022977812733345957	-0.01098356179446362	0.0035420128796009457	-0.004980768569742879	-0.027183133383484718
746	0.01706186179276735	-0.012464348197608442	-0.001444243489005549	-0.031668968370561414	0.04039353552169289
747	0.030221388266081575	0.022165014085406106	0.01898227645611743	-0.01982733435918955	0.0012471132915589614
748	0.004681205088805555	0.05138040263960969	-0.00915000571794867	-0.004721265413467762	-0.0008152188241437138
749	0.0032716686481011345	-0.0011354945239441588	0.013759003196437703	0.029273959721511148	0.006151183803182398
750	0.013774304192607459	0.044271568363429915	-0.025967038743192988	0.005298088891217117	0.009007173070148481
751	0.012692201119818974	0.042902928623115566	0.012044295157111999	-0.030777704700925605	0.024956905984274722
752	0.044136397305156734	-0.018910803180533387	0.024033245761386594	-0.0029066699888822176	-0.01086249031318154
753	-0.012633917992767618	0.05556808163778996	-0.010565665736856284	0.005213516046996385	0.007699409357637308
754	0.03717724613142836	-0.012345127709794382	0.026046528187485474	0.050053380854442595	-0.005044378479990397
755	-0.013509883186690667	0.053155649184460585	-0.019728673269723357	0.011405409812765579	0.0003505327380143936
756	-0.009420409091918765	0.03802503432861877	-0.020650854588378422	-0.04526907799771899	0.019346822665990176
757	-0.012057546919311796	-0.006305216600237679	-0.026669118838311683	-0.02525930530571178	0.011657951602125632
758	0.02040236681118778	0.026108423803894568	0.037744516187588666	0.04903235096738773	-0.011648234944147209
759	0.02018066992317131	-0.020547835470760487	0.000904900744060453	-0.011482814771472463	0.006892236162906406
760	-0.00011478713103899945	0.027926253394607997	-0.028016409422284685	0.020331338697044298	0.016535041058398346
761	0.046357902515192874	-0.017092081100218738	0.008997934784893366	0.00042027684218582344	-0.01005721710579168
762	0.044094797933482845	-0.007699199156946815	-0.004100340461487873	-0.0041041205690103355	0.03257893614040186
763	0.01829988478663472	0.02131272283974188	0.013618271309319582	0.01828446053585705	0.0376168493600667
764	0.028261301388703957	0.01721031580058863	-0.055356823414868715	0.017104960969594407	0.00041992446944472535
765	0.0306624989093726	-0.013548235057843699	0.02834083832258848	0.008775315228897853	0.05703047476734605
766	-0.006320395958722994	0.03775404997770793	0.04586071833180153	0.02189179251002943	0.01578806023013558
767	-0.013443798868875336	0.015676517984898452	-0.020207189561202214	0.03907657682020857	-0.040617956907130284
768	0.03635008430105541	0.019673291540347186	-0.03724534008813036	-0.0019217170254676337	0.024200938539059073
769	-0.009635634506419874	0.01594038616497607	0.008764312481151677	-0.0262805281158168	-0.012796492785326328
770	-0.013405039651585926	0.012005753755937801	-0.0036740420977833485	0.004962157207202475	0.03469463017017044
771	0.04342219750806278	-0.02283306097303033	0.00740717020530115	-0.007892518424292996	-0.0007589780323807114
772	-0.014734317513249691	0.053257141897565356	-0.01215973079220749	0.003171388969578075	0.006051927890623921
773	0.03502255023487872	-0.009118164655352345	-0.013654243683570405	-0.00735037504240296	0.03396808638276605
774	0.01697227289969995	0.039908339880958356	0.034772857182437646	0.010013846433548078	-0.0011035665398124632
775	0.014897368302652156	0.016866908110253695	0.027282127743094776	-0.02057511778335706	0.00945210239537463
776	0.010497025290898632	0.011047176167143213	0.02842152398912446	0.011408715615310025	0.002734712598265435
777	0.032291971996535475	0.021922582626389818	0.04837168893243905	0.006552082576976635	-0.020657891627733672
778	0.034021666013124674	0.01930746636069133	-0.020393747294425932	-0.014127861260588492	0.016246131285534548
779	0.01152563220991552	0.013442030566224332	-0.05137013723111485	0.020833264624818902	0.05266409751537919
780	-0.006882412855544289	0.01873841137207429	-0.03244119504995349	0.023919165598259143	-0.04621303829748569
781	0.037515225922709644	0.0031389725838219043	-0.014562041236151797	0.014566896330216796	0.024533891491424886
782	0.01251184138049541	0.04228654626801517	0.010700195676046412	-0.030453149357599275	0.022729588736926598
783	0.03232541360971588	0.019282368916732545	0.026678834939189936	-0.036223552630092616	-0.01860260338344804
784	0.03300234908250864	0.008342309247787286	-0.007524063829159472	-0.006791729170838189	0.019390672485249026
785	-0.0006440900201080145	0.024383822833150492	-0.05109211152859929	-0.035357811721066806	-0.0008879220052397722
786	0.019179521422926504	0.02860030926098692	0.01720845491558204	6.375690781557474e-05	0.00390926552253868
787	0.04044129025066197	0.005800334239558677	0.006139142985225278	-0.021761579392808886	-0.01991358074948933
788	0.029131007516268504	0.0273403067921588	0.023607958990527596	0.054813611763028076	-0.012405212376319011
789	0.019799061218644706	0.01688100722139192	-0.0482136162746033	0.019631009743958795	0.01790184491261176
790	0.04578130845698021	-0.021709111336464162	0.011262293956765633	0.004922771451974133	-0.0021992237586616567
791	0.015490502597730701	0.03350901490091094	-0.04269623683808474	0.026988088929067452	0.026993237844161824
792	0.022615282857005353	-0.011739567831701669	0.041258377365854526	0.005027177161767272	0.024849457201466685
793	0.03250647705245059	0.014353951809604156	0.01910163225785923	-0.016532977195522828	-0.001036935944807102
794	0.04425364653277156	-0.021758709679578315	0.010941143065968368	0.004094857930587512	-0.011308866423582156
795	0.02078553258329976	0.02882608835174123	0.030145134394847024	-0.011197630290394963	0.006539726223476761
796	0.036127609996043704	-0.024672636002781894	0.007918507939828527	-0.004394870339039563	0.010177545993917996
797	0.044445955610371464	-0.02633835284137838	0.00445516783513245	-0.0048217921473150335	-0.006080427384563743
798	0.004830228038760347	0.0011322489763031605	-0.04600285346939004	0.03409895662445915	0.034125385669851245
799	0.03897523319409027	-0.011327798132659139	0.006423361709459725	0.0025753767953435886	-0.013760238566820137
800	0.045865153167336	-0.013916236479981187	0.013602685972176915	-0.0014605980527824304	-0.0052256848369027125
801	0.037971848620101945	-0.0006223904587535469	-0.04321771876183497	0.025213433053356438	-0.0022525431887045716
802	0.030350374293926834	0.007412720677715384	-0.05135483080753913	0.019297921253940063	-0.029806557843169688
803	0.036111634532151646	-0.02245493436035428	0.020676123392264337	0.008748246519373502	0.017914966337708338
804	0.01649592909297614	0.011068794413999298	-0.0498973247314218	-0.02922916915306367	-0.05576902561026686
805	0.03605218983705061	0.008696062549474082	0.006851376815726041	-0.018190088242400135	0.012484202451726217
806	-0.011774480323754537	0.053264720982936054	-0.009872660136307401	-0.006302538972522511	-0.004704113534790341
807	0.044424197957046385	-0.022535506638841307	0.010327399223881505	0.00736169073301788	-0.014249050426455365
808	0.035436611951808944	-0.001355583926897475	-0.04878059913831846	0.02553546291252325	-0.004956937167191169
809	-0.0010321657805482005	0.016236269145707603	0.011875812315039775	0.0187140684972579	-0.016815670404060387
810	-0.03274586553426034	0.020524140261768797	-0.0007088991650737566	0.011268252814795803	0.012459397421919831
811	0.027167565064297378	0.010131393976630057	-0.057453444183024095	0.014585522567741874	-0.023573874481819544
812	0.030054693453410244	0.026180887897472926	-0.01068038610704909	-0.007389770819320591	0.036297682135544775
813	0.04316938845459565	-0.0031068981081560925	-0.013138917104022239	0.00275664217478095	0.016583832987370945
814	0.017762964164726315	0.02047921319491531	0.042127337651044774	0.009132832173691176	0.0041676758321058235
815	-0.011187925682159724	0.03869620774178956	-0.021064638554228812	0.015124233953222887	-0.03338246827133403
816	0.02928820472453746	0.006588120344123402	-0.053650547679010924	0.018356388493639984	-0.03324549252775761
817	0.0034064921968178846	0.000978406359046371	0.02437188812461198	-0.014089045569194969	-0.0026725077287430153
818	0.0437187885284023	-0.024682678874214693	0.008437744908688177	-0.0029977539402856685	-0.007198609999948033
819	-0.008513348481622274	0.048907494500324215	-0.0005833928163430935	-0.00041938958371851194	-0.010538743508044585
820	-0.0014289662636872106	0.015321543769265448	-0.03516522603928115	-0.005183122077982748	-0.013432810966529088
821	0.033394317941923504	-0.023536434975434294	0.04032398401419909	0.004149383024292324	0.015162232799461956
822	0.001895378498987506	0.014758329274089325	-0.04454753038462947	0.04846569702676475	-0.013389585709554827
823	0.008735220550489774	0.051399090212128656	-0.013770125909329642	-0.015865870006009197	-0.013474679513195297
824	0.0462743602918798	-0.008681574931301903	-0.007097068790437333	0.02144120785339139	0.010996434401053627
825	0.02475580317591555	0.021384597617398263	0.0010606476266770068	-0.007530311913897309	0.04100439755082401
826	0.040189906992272734	-0.011774618886248983	-0.022316721226566347	0.027654209708593926	0.012504375090703458
827	0.014917388057497894	0.02491779306928887	0.003932928111472096	-0.015199728776123434	0.010004609017528235
828	0.035734861752566	-0.00250963143871416	-0.045771934405686866	0.024910890903459104	-0.005725250924337164
829	-0.028475336194198266	0.03652402467720693	0.018487022044315585	0.014601911964963602	0.004479074522747058
830	-0.011366670684829489	0.051534894654528186	-0.002841429848070812	-0.008887094272733338	0.01274770807532666
831	0.015203724438677199	0.02820827600667793	-0.0019113224556345683	-0.004604792134282173	0.004473852570068779
832	0.04270209497211517	-0.022956921529223052	0.011701743874291645	0.021304706124000844	-0.006097732137628254
833	0.024690725200852637	0.007886826307632615	-0.057032163312349386	0.022775368405765578	-0.030344095895489913
834	0.023339590689326527	0.03459014266069897	-0.009442482105034185	-0.018383024846113646	0.02046444959572113
835	0.017814283841065794	0.029039256901314137	-0.0023876299579601223	0.004382668939677492	0.041729184938876354
836	0.026644423937621096	0.004903446898570421	0.0002917437130611819	-0.06692491640511154	0.001277961228347699
837	-0.004710200861925275	0.055158083412476536	0.0015411467343752377	-0.01189841941484831	0.0266602221084244
838	0.036800639654812325	0.0204971741909569	-0.007202291903436973	0.04049342149524832	-0.007951637342248954
839	0.046673527822471216	0.0031361914050660827	0.006875639487108979	-0.022490611504268447	-0.0179580490163469
840	0.02502715570374344	0.00945828268994081	-0.012131186679169667	-0.023921335152336676	0.03501483654680376
841	0.0351083780919921	0.003425381841204161	-0.0440684420873391	0.031326481878870195	-0.0063476987568998255
842	-0.03626809216966722	0.021666524757230663	0.024634100435761985	0.0019386156127310834	-0.029953173129888242
843	0.013274428602886744	0.01454174149424566	0.044760218447457596	-0.03649181885633539	-0.0006605308141747121
844	0.013025821864796162	0.005912781572485279	0.05490336111795082	0.010059925852872555	-0.0011840755136337039
845	-0.03320592831170257	0.03497009930062187	0.0030962493786871955	0.021735890169683882	-0.014379514806630278
846	0.03146871385847171	0.023529167616275822	-0.029848508997689916	0.017278307585119678	-0.018873763524702332
847	0.04321245859383255	-0.022016990218142587	0.005593013647189366	-0.008902866710009059	-0.005114873451376776
848	0.020390346842083136	0.046461261064262384	-0.028585318098686113	0.020958301337257967	0.01313898324623838
849	-0.012933141063882535	0.0004705376075603525	-0.021740652803642055	-0.07627884396853994	0.022427485140905576
850	0.028070323324095432	0.011753323868102294	0.020897271778616843	-0.015797032007794316	0.045604502459834786
851	0.011917960049818474	0.008824136769256979	0.015727718923729764	-0.024482956794421126	-0.017523967973388795
852	0.046038237810928646	-0.01603499713056876	0.013358380999803129	-0.000319690890825123	-0.0001626224501159776
853	0.035258570602264075	0.00016598372601184404	-0.04471840412537388	0.030670104059846885	-0.011500848417607309
854	-0.009667644643587272	0.04306722642587838	0.026459865068421323	0.00057249624474979	0.0060438841428646665
855	0.03587800694141983	-0.02764623652475073	0.013472217268561534	-0.005071781735821202	0.0015273774099458111
856	0.03390950371276222	0.01119624952688586	-0.027499592282052558	0.004102355096078599	-0.022169264642293025
857	0.0032440660875797393	0.026431814697735277	-0.035907878949652854	-0.062596052362794	0.0009872547666671136
858	-0.015449948791466172	0.039656160556970695	-0.01579187833718353	0.020777978048395204	0.00502296374024894
859	0.008542865221384033	0.032907689550049864	-0.04160551649232365	0.015576602495811932	0.0468345660537643
860	0.025451778943773345	0.004874838277250408	-0.011971099794236863	0.020314661116172427	0.07328065018414583
861	0.03600476263323189	0.011977514765346847	-0.0070910638397738	0.05695037764730186	0.00030404587545308976
862	0.03702830598512893	0.002160818684605976	-0.014457735979286158	0.00928050076403192	0.03585277805597188
863	0.014261148307337417	0.033623611279960997	0.021560469760055254	-0.023307365576081894	0.005075214613139261
864	0.045646508108256725	-0.020568726733178295	0.010195220455045038	0.001958421267327835	-0.00602637087456943
865	0.019493399431377626	0.015541402488474286	-0.04788685918181863	0.022437674890919104	0.019535022226194274
866	0.03933299992896908	-0.010078539592218395	0.02350584573785759	0.04662880666337008	-0.00937008873040239
867	0.037291583074672556	-0.005377189126779552	-0.010515848800702183	0.033277153209844014	0.02396088137694509
868	0.01682759638650138	0.02904586433761361	0.03198893402669423	0.036379218133587125	0.03712622120624254
869	0.04072772711748442	-0.017727323309807454	-0.016824531904057246	0.009202793344088682	-0.008599175590026977
870	0.020832752300373288	-0.0013893690634473044	-0.0306918866421774	-0.004825107672356977	0.05226632200934695
871	0.03230631220130732	-0.0019043702529944022	0.030865746551058143	-0.014433502820878675	0.006848946912479371
872	-0.006552357047531274	-0.004658369037187961	-0.022534949861677506	-0.032928394389306136	0.018146157704852957
873	0.02530919549763732	0.0151029051880165	-0.0003290648682689578	-0.001341162648822425	0.049102562795639806
874	0.0070939486717241425	0.015787450261762988	-0.03942987493585047	-0.011549272525336659	0.030831544833575152
875	0.01981052003034564	0.030139737348693282	-0.013245378364330996	0.06553603115119015	-0.015595272790816858
876	0.03084248211249206	0.012890722668862794	0.016876142330796456	-0.019374541295475632	0.009005571031955598
877	0.017032387777282384	0.02576176456041933	0.02614537165697684	-0.011694694520659627	0.010580138645304564
878	-0.006907216547838396	0.017378709751924758	-0.042607639327122	0.029862199494083207	-0.03893448589825801
879	0.010064751421215226	0.03124262996701454	-0.011150417038017453	-0.001698220626807462	0.0054535216267007965
880	0.03813992119972568	0.011419583864137623	0.00998118411058941	-0.01258072142003353	-0.00390873529157264
881	0.0081447322946885	0.026814612220470796	-0.01925930768516768	0.024702735131938044	0.04181823912340822
882	0.040363171269575344	-0.01573779182396557	0.012798688648816682	0.02148207581669637	-0.02535123054674016
883	0.003303152019023076	0.011064257353801529	-0.0029386148572352667	-0.003979612346654754	-0.01487202325701245
884	-0.003634168305122477	-0.014890909203666489	-0.047353652816938506	-0.04362013252029624	0.035878853854983364
885	0.012771516741642895	0.040930016650262344	0.011786605124163463	-0.030704139287990675	0.025815189814979662
886	0.011401817290486069	0.03807426026031888	0.022906403277967762	-0.02833786251717027	0.012267659840124233
887	0.041216703573885946	-0.02740429335189324	0.005526517812568613	-0.006736592671916907	-0.001975801241193144
888	0.036429785597513704	0.015080913590843313	-0.030692895193187568	-0.027254444369568937	0.01280743322182064
889	0.017427980982284517	0.015998677698609794	-0.0393213620989679	0.01662121902268273	-0.01666838558625386
890	0.008517043477217908	0.003704972326388131	-0.0463863027520472	0.0008063473608980532	0.038832870324917786
891	0.02182391066135513	0.02929588149540456	0.02036574247804787	0.001150103408260519	0.029258530929133927
892	-0.0016155347786481263	0.025967240866172404	-0.006191501093544156	-0.008972136521195608	0.013641220296820291
893	0.004355002506750172	0.006317942093847586	0.005548184475577181	-0.0015086180076037082	0.01318053500059428
894	0.025080127834231733	-0.010219889840295902	0.004174848872222564	-0.011768338946721949	-0.009022527620705174
895	0.03810258733163001	-0.006174465536588048	0.0265464504442708	0.013412514711066564	0.018202065824895402
896	0.014601229163168562	0.04217433627572565	0.028036642466350487	-0.013527240346334535	-0.029529000303758216
897	0.00807919432970793	0.027287725011036643	0.021745763722197733	0.014224162637134137	-0.049511939621234485
898	0.014951727765658332	0.04877321803827395	0.004820523079473348	0.03541232710223234	-0.0006092275565042607
899	-0.007134509335579574	0.03514032596235469	-0.037418672210231936	0.01466355183889758	-0.02545053516396961
900	0.024322245097921774	0.013570349455549769	0.008197762763850105	0.015080443140191063	0.06358884279925103
901	0.030196808279382134	0.009652260028610138	0.011133918288668014	0.005331382210779762	-0.026574774493877282
902	-0.020204031734190442	0.023012057382769346	-0.0014355020757307727	-0.010882317954091225	-0.045760237584916895
903	0.027959265788371053	0.02833414777046774	0.0016022656357908627	-0.024190486657848773	0.0036896198771116063
904	-0.0033341521726028083	0.0033206182520690505	0.04310262704363939	0.04110967312677691	0.036214766555687415
905	0.04437923516594092	-0.021490402039808752	0.019702293712924424	0.006235961923736135	-0.003181584189017662
906	-0.042633393815558085	0.015299145978167852	-0.009825171077941784	0.015527862415079106	0.007515944697709613
907	0.03923113435176628	-0.016879103869609377	0.0004089290625921268	-0.005933351108286959	-0.0008939706700310465
908	0.016873781674080105	0.04398337035765383	-0.003396996790602632	-0.011970251299244901	0.01152731353422792
909	0.006123404911337479	-0.013047178403949552	-0.019955617175225128	-0.07135371637039144	0.023974073393139415
910	0.036868792246703364	0.0019928024098893	-0.0439353452801438	0.0281437794007941	-0.008966495419338845
911	0.019134322965487244	-0.00983126371789225	0.03556912228210723	-0.020387357967809733	0.032206006587269555
